tree
version=v3
num_class=1
num_tree_per_iteration=1
label_index=0
max_feature_idx=18747
objective=regression
feature_names=Treatment_1_moa Treatment_2_moa Treatment_1_name Treatment_2_name Treatment_1_MACCS_1 Treatment_1_MACCS_2 Treatment_1_MACCS_3 Treatment_1_MACCS_4 Treatment_1_MACCS_5 Treatment_1_MACCS_6 Treatment_1_MACCS_7 Treatment_1_MACCS_8 Treatment_1_MACCS_9 Treatment_1_MACCS_10 Treatment_1_MACCS_11 Treatment_1_MACCS_12 Treatment_1_MACCS_13 Treatment_1_MACCS_14 Treatment_1_MACCS_15 Treatment_1_MACCS_16 Treatment_1_MACCS_17 Treatment_1_MACCS_18 Treatment_1_MACCS_19 Treatment_1_MACCS_20 Treatment_1_MACCS_21 Treatment_1_MACCS_22 Treatment_1_MACCS_23 Treatment_1_MACCS_24 Treatment_1_MACCS_25 Treatment_1_MACCS_26 Treatment_1_MACCS_27 Treatment_1_MACCS_28 Treatment_1_MACCS_29 Treatment_1_MACCS_30 Treatment_1_MACCS_31 Treatment_1_MACCS_32 Treatment_1_MACCS_33 Treatment_1_MACCS_34 Treatment_1_MACCS_35 Treatment_1_MACCS_36 Treatment_1_MACCS_37 Treatment_1_MACCS_38 Treatment_1_MACCS_39 Treatment_1_MACCS_40 Treatment_1_MACCS_41 Treatment_1_MACCS_42 Treatment_1_MACCS_43 Treatment_1_MACCS_44 Treatment_1_MACCS_45 Treatment_1_MACCS_46 Treatment_1_MACCS_47 Treatment_1_MACCS_48 Treatment_1_MACCS_49 Treatment_1_MACCS_50 Treatment_1_MACCS_51 Treatment_1_MACCS_52 Treatment_1_MACCS_53 Treatment_1_MACCS_54 Treatment_1_MACCS_55 Treatment_1_MACCS_56 Treatment_1_MACCS_57 Treatment_1_MACCS_58 Treatment_1_MACCS_59 Treatment_1_MACCS_60 Treatment_1_MACCS_61 Treatment_1_MACCS_62 Treatment_1_MACCS_63 Treatment_1_MACCS_64 Treatment_1_MACCS_65 Treatment_1_MACCS_66 Treatment_1_MACCS_67 Treatment_1_MACCS_68 Treatment_1_MACCS_69 Treatment_1_MACCS_70 Treatment_1_MACCS_71 Treatment_1_MACCS_72 Treatment_1_MACCS_73 Treatment_1_MACCS_74 Treatment_1_MACCS_75 Treatment_1_MACCS_76 Treatment_1_MACCS_77 Treatment_1_MACCS_78 Treatment_1_MACCS_79 Treatment_1_MACCS_80 Treatment_1_MACCS_81 Treatment_1_MACCS_82 Treatment_1_MACCS_83 Treatment_1_MACCS_84 Treatment_1_MACCS_85 Treatment_1_MACCS_86 Treatment_1_MACCS_87 Treatment_1_MACCS_88 Treatment_1_MACCS_89 Treatment_1_MACCS_90 Treatment_1_MACCS_91 Treatment_1_MACCS_92 Treatment_1_MACCS_93 Treatment_1_MACCS_94 Treatment_1_MACCS_95 Treatment_1_MACCS_96 Treatment_1_MACCS_97 Treatment_1_MACCS_98 Treatment_1_MACCS_99 Treatment_1_MACCS_100 Treatment_1_MACCS_101 Treatment_1_MACCS_102 Treatment_1_MACCS_103 Treatment_1_MACCS_104 Treatment_1_MACCS_105 Treatment_1_MACCS_106 Treatment_1_MACCS_107 Treatment_1_MACCS_108 Treatment_1_MACCS_109 Treatment_1_MACCS_110 Treatment_1_MACCS_111 Treatment_1_MACCS_112 Treatment_1_MACCS_113 Treatment_1_MACCS_114 Treatment_1_MACCS_115 Treatment_1_MACCS_116 Treatment_1_MACCS_117 Treatment_1_MACCS_118 Treatment_1_MACCS_119 Treatment_1_MACCS_120 Treatment_1_MACCS_121 Treatment_1_MACCS_122 Treatment_1_MACCS_123 Treatment_1_MACCS_124 Treatment_1_MACCS_125 Treatment_1_MACCS_126 Treatment_1_MACCS_127 Treatment_1_MACCS_128 Treatment_1_MACCS_129 Treatment_1_MACCS_130 Treatment_1_MACCS_131 Treatment_1_MACCS_132 Treatment_1_MACCS_133 Treatment_1_MACCS_134 Treatment_1_MACCS_135 Treatment_1_MACCS_136 Treatment_1_MACCS_137 Treatment_1_MACCS_138 Treatment_1_MACCS_139 Treatment_1_MACCS_140 Treatment_1_MACCS_141 Treatment_1_MACCS_142 Treatment_1_MACCS_143 Treatment_1_MACCS_144 Treatment_1_MACCS_145 Treatment_1_MACCS_146 Treatment_1_MACCS_147 Treatment_1_MACCS_148 Treatment_1_MACCS_149 Treatment_1_MACCS_150 Treatment_1_MACCS_151 Treatment_1_MACCS_152 Treatment_1_MACCS_153 Treatment_1_MACCS_154 Treatment_1_MACCS_155 Treatment_1_MACCS_156 Treatment_1_MACCS_157 Treatment_1_MACCS_158 Treatment_1_MACCS_159 Treatment_1_MACCS_160 Treatment_1_MACCS_161 Treatment_1_MACCS_162 Treatment_1_MACCS_163 Treatment_1_MACCS_164 Treatment_1_MACCS_165 Treatment_1_MACCS_166 Treatment_1_MACCS_167 Treatment_1_Morgan_1 Treatment_1_Morgan_2 Treatment_1_Morgan_3 Treatment_1_Morgan_4 Treatment_1_Morgan_5 Treatment_1_Morgan_6 Treatment_1_Morgan_7 Treatment_1_Morgan_8 Treatment_1_Morgan_9 Treatment_1_Morgan_10 Treatment_1_Morgan_11 Treatment_1_Morgan_12 Treatment_1_Morgan_13 Treatment_1_Morgan_14 Treatment_1_Morgan_15 Treatment_1_Morgan_16 Treatment_1_Morgan_17 Treatment_1_Morgan_18 Treatment_1_Morgan_19 Treatment_1_Morgan_20 Treatment_1_Morgan_21 Treatment_1_Morgan_22 Treatment_1_Morgan_23 Treatment_1_Morgan_24 Treatment_1_Morgan_25 Treatment_1_Morgan_26 Treatment_1_Morgan_27 Treatment_1_Morgan_28 Treatment_1_Morgan_29 Treatment_1_Morgan_30 Treatment_1_Morgan_31 Treatment_1_Morgan_32 Treatment_1_Morgan_33 Treatment_1_Morgan_34 Treatment_1_Morgan_35 Treatment_1_Morgan_36 Treatment_1_Morgan_37 Treatment_1_Morgan_38 Treatment_1_Morgan_39 Treatment_1_Morgan_40 Treatment_1_Morgan_41 Treatment_1_Morgan_42 Treatment_1_Morgan_43 Treatment_1_Morgan_44 Treatment_1_Morgan_45 Treatment_1_Morgan_46 Treatment_1_Morgan_47 Treatment_1_Morgan_48 Treatment_1_Morgan_49 Treatment_1_Morgan_50 Treatment_1_Morgan_51 Treatment_1_Morgan_52 Treatment_1_Morgan_53 Treatment_1_Morgan_54 Treatment_1_Morgan_55 Treatment_1_Morgan_56 Treatment_1_Morgan_57 Treatment_1_Morgan_58 Treatment_1_Morgan_59 Treatment_1_Morgan_60 Treatment_1_Morgan_61 Treatment_1_Morgan_62 Treatment_1_Morgan_63 Treatment_1_Morgan_64 Treatment_1_Morgan_65 Treatment_1_Morgan_66 Treatment_1_Morgan_67 Treatment_1_Morgan_68 Treatment_1_Morgan_69 Treatment_1_Morgan_70 Treatment_1_Morgan_71 Treatment_1_Morgan_72 Treatment_1_Morgan_73 Treatment_1_Morgan_74 Treatment_1_Morgan_75 Treatment_1_Morgan_76 Treatment_1_Morgan_77 Treatment_1_Morgan_78 Treatment_1_Morgan_79 Treatment_1_Morgan_80 Treatment_1_Morgan_81 Treatment_1_Morgan_82 Treatment_1_Morgan_83 Treatment_1_Morgan_84 Treatment_1_Morgan_85 Treatment_1_Morgan_86 Treatment_1_Morgan_87 Treatment_1_Morgan_88 Treatment_1_Morgan_89 Treatment_1_Morgan_90 Treatment_1_Morgan_91 Treatment_1_Morgan_92 Treatment_1_Morgan_93 Treatment_1_Morgan_94 Treatment_1_Morgan_95 Treatment_1_Morgan_96 Treatment_1_Morgan_97 Treatment_1_Morgan_98 Treatment_1_Morgan_99 Treatment_1_Morgan_100 Treatment_1_Morgan_101 Treatment_1_Morgan_102 Treatment_1_Morgan_103 Treatment_1_Morgan_104 Treatment_1_Morgan_105 Treatment_1_Morgan_106 Treatment_1_Morgan_107 Treatment_1_Morgan_108 Treatment_1_Morgan_109 Treatment_1_Morgan_110 Treatment_1_Morgan_111 Treatment_1_Morgan_112 Treatment_1_Morgan_113 Treatment_1_Morgan_114 Treatment_1_Morgan_115 Treatment_1_Morgan_116 Treatment_1_Morgan_117 Treatment_1_Morgan_118 Treatment_1_Morgan_119 Treatment_1_Morgan_120 Treatment_1_Morgan_121 Treatment_1_Morgan_122 Treatment_1_Morgan_123 Treatment_1_Morgan_124 Treatment_1_Morgan_125 Treatment_1_Morgan_126 Treatment_1_Morgan_127 Treatment_1_Morgan_128 Treatment_1_Morgan_129 Treatment_1_Morgan_130 Treatment_1_Morgan_131 Treatment_1_Morgan_132 Treatment_1_Morgan_133 Treatment_1_Morgan_134 Treatment_1_Morgan_135 Treatment_1_Morgan_136 Treatment_1_Morgan_137 Treatment_1_Morgan_138 Treatment_1_Morgan_139 Treatment_1_Morgan_140 Treatment_1_Morgan_141 Treatment_1_Morgan_142 Treatment_1_Morgan_143 Treatment_1_Morgan_144 Treatment_1_Morgan_145 Treatment_1_Morgan_146 Treatment_1_Morgan_147 Treatment_1_Morgan_148 Treatment_1_Morgan_149 Treatment_1_Morgan_150 Treatment_1_Morgan_151 Treatment_1_Morgan_152 Treatment_1_Morgan_153 Treatment_1_Morgan_154 Treatment_1_Morgan_155 Treatment_1_Morgan_156 Treatment_1_Morgan_157 Treatment_1_Morgan_158 Treatment_1_Morgan_159 Treatment_1_Morgan_160 Treatment_1_Morgan_161 Treatment_1_Morgan_162 Treatment_1_Morgan_163 Treatment_1_Morgan_164 Treatment_1_Morgan_165 Treatment_1_Morgan_166 Treatment_1_Morgan_167 Treatment_1_Morgan_168 Treatment_1_Morgan_169 Treatment_1_Morgan_170 Treatment_1_Morgan_171 Treatment_1_Morgan_172 Treatment_1_Morgan_173 Treatment_1_Morgan_174 Treatment_1_Morgan_175 Treatment_1_Morgan_176 Treatment_1_Morgan_177 Treatment_1_Morgan_178 Treatment_1_Morgan_179 Treatment_1_Morgan_180 Treatment_1_Morgan_181 Treatment_1_Morgan_182 Treatment_1_Morgan_183 Treatment_1_Morgan_184 Treatment_1_Morgan_185 Treatment_1_Morgan_186 Treatment_1_Morgan_187 Treatment_1_Morgan_188 Treatment_1_Morgan_189 Treatment_1_Morgan_190 Treatment_1_Morgan_191 Treatment_1_Morgan_192 Treatment_1_Morgan_193 Treatment_1_Morgan_194 Treatment_1_Morgan_195 Treatment_1_Morgan_196 Treatment_1_Morgan_197 Treatment_1_Morgan_198 Treatment_1_Morgan_199 Treatment_1_Morgan_200 Treatment_1_Morgan_201 Treatment_1_Morgan_202 Treatment_1_Morgan_203 Treatment_1_Morgan_204 Treatment_1_Morgan_205 Treatment_1_Morgan_206 Treatment_1_Morgan_207 Treatment_1_Morgan_208 Treatment_1_Morgan_209 Treatment_1_Morgan_210 Treatment_1_Morgan_211 Treatment_1_Morgan_212 Treatment_1_Morgan_213 Treatment_1_Morgan_214 Treatment_1_Morgan_215 Treatment_1_Morgan_216 Treatment_1_Morgan_217 Treatment_1_Morgan_218 Treatment_1_Morgan_219 Treatment_1_Morgan_220 Treatment_1_Morgan_221 Treatment_1_Morgan_222 Treatment_1_Morgan_223 Treatment_1_Morgan_224 Treatment_1_Morgan_225 Treatment_1_Morgan_226 Treatment_1_Morgan_227 Treatment_1_Morgan_228 Treatment_1_Morgan_229 Treatment_1_Morgan_230 Treatment_1_Morgan_231 Treatment_1_Morgan_232 Treatment_1_Morgan_233 Treatment_1_Morgan_234 Treatment_1_Morgan_235 Treatment_1_Morgan_236 Treatment_1_Morgan_237 Treatment_1_Morgan_238 Treatment_1_Morgan_239 Treatment_1_Morgan_240 Treatment_1_Morgan_241 Treatment_1_Morgan_242 Treatment_1_Morgan_243 Treatment_1_Morgan_244 Treatment_1_Morgan_245 Treatment_1_Morgan_246 Treatment_1_Morgan_247 Treatment_1_Morgan_248 Treatment_1_Morgan_249 Treatment_1_Morgan_250 Treatment_1_Morgan_251 Treatment_1_Morgan_252 Treatment_1_Morgan_253 Treatment_1_Morgan_254 Treatment_1_Morgan_255 Treatment_1_Morgan_256 Treatment_1_Morgan_257 Treatment_1_Morgan_258 Treatment_1_Morgan_259 Treatment_1_Morgan_260 Treatment_1_Morgan_261 Treatment_1_Morgan_262 Treatment_1_Morgan_263 Treatment_1_Morgan_264 Treatment_1_Morgan_265 Treatment_1_Morgan_266 Treatment_1_Morgan_267 Treatment_1_Morgan_268 Treatment_1_Morgan_269 Treatment_1_Morgan_270 Treatment_1_Morgan_271 Treatment_1_Morgan_272 Treatment_1_Morgan_273 Treatment_1_Morgan_274 Treatment_1_Morgan_275 Treatment_1_Morgan_276 Treatment_1_Morgan_277 Treatment_1_Morgan_278 Treatment_1_Morgan_279 Treatment_1_Morgan_280 Treatment_1_Morgan_281 Treatment_1_Morgan_282 Treatment_1_Morgan_283 Treatment_1_Morgan_284 Treatment_1_Morgan_285 Treatment_1_Morgan_286 Treatment_1_Morgan_287 Treatment_1_Morgan_288 Treatment_1_Morgan_289 Treatment_1_Morgan_290 Treatment_1_Morgan_291 Treatment_1_Morgan_292 Treatment_1_Morgan_293 Treatment_1_Morgan_294 Treatment_1_Morgan_295 Treatment_1_Morgan_296 Treatment_1_Morgan_297 Treatment_1_Morgan_298 Treatment_1_Morgan_299 Treatment_1_Morgan_300 Treatment_1_Morgan_301 Treatment_1_Morgan_302 Treatment_1_Morgan_303 Treatment_1_Morgan_304 Treatment_1_Morgan_305 Treatment_1_Morgan_306 Treatment_1_Morgan_307 Treatment_1_Morgan_308 Treatment_1_Morgan_309 Treatment_1_Morgan_310 Treatment_1_Morgan_311 Treatment_1_Morgan_312 Treatment_1_Morgan_313 Treatment_1_Morgan_314 Treatment_1_Morgan_315 Treatment_1_Morgan_316 Treatment_1_Morgan_317 Treatment_1_Morgan_318 Treatment_1_Morgan_319 Treatment_1_Morgan_320 Treatment_1_Morgan_321 Treatment_1_Morgan_322 Treatment_1_Morgan_323 Treatment_1_Morgan_324 Treatment_1_Morgan_325 Treatment_1_Morgan_326 Treatment_1_Morgan_327 Treatment_1_Morgan_328 Treatment_1_Morgan_329 Treatment_1_Morgan_330 Treatment_1_Morgan_331 Treatment_1_Morgan_332 Treatment_1_Morgan_333 Treatment_1_Morgan_334 Treatment_1_Morgan_335 Treatment_1_Morgan_336 Treatment_1_Morgan_337 Treatment_1_Morgan_338 Treatment_1_Morgan_339 Treatment_1_Morgan_340 Treatment_1_Morgan_341 Treatment_1_Morgan_342 Treatment_1_Morgan_343 Treatment_1_Morgan_344 Treatment_1_Morgan_345 Treatment_1_Morgan_346 Treatment_1_Morgan_347 Treatment_1_Morgan_348 Treatment_1_Morgan_349 Treatment_1_Morgan_350 Treatment_1_Morgan_351 Treatment_1_Morgan_352 Treatment_1_Morgan_353 Treatment_1_Morgan_354 Treatment_1_Morgan_355 Treatment_1_Morgan_356 Treatment_1_Morgan_357 Treatment_1_Morgan_358 Treatment_1_Morgan_359 Treatment_1_Morgan_360 Treatment_1_Morgan_361 Treatment_1_Morgan_362 Treatment_1_Morgan_363 Treatment_1_Morgan_364 Treatment_1_Morgan_365 Treatment_1_Morgan_366 Treatment_1_Morgan_367 Treatment_1_Morgan_368 Treatment_1_Morgan_369 Treatment_1_Morgan_370 Treatment_1_Morgan_371 Treatment_1_Morgan_372 Treatment_1_Morgan_373 Treatment_1_Morgan_374 Treatment_1_Morgan_375 Treatment_1_Morgan_376 Treatment_1_Morgan_377 Treatment_1_Morgan_378 Treatment_1_Morgan_379 Treatment_1_Morgan_380 Treatment_1_Morgan_381 Treatment_1_Morgan_382 Treatment_1_Morgan_383 Treatment_1_Morgan_384 Treatment_1_Morgan_385 Treatment_1_Morgan_386 Treatment_1_Morgan_387 Treatment_1_Morgan_388 Treatment_1_Morgan_389 Treatment_1_Morgan_390 Treatment_1_Morgan_391 Treatment_1_Morgan_392 Treatment_1_Morgan_393 Treatment_1_Morgan_394 Treatment_1_Morgan_395 Treatment_1_Morgan_396 Treatment_1_Morgan_397 Treatment_1_Morgan_398 Treatment_1_Morgan_399 Treatment_1_Morgan_400 Treatment_1_Morgan_401 Treatment_1_Morgan_402 Treatment_1_Morgan_403 Treatment_1_Morgan_404 Treatment_1_Morgan_405 Treatment_1_Morgan_406 Treatment_1_Morgan_407 Treatment_1_Morgan_408 Treatment_1_Morgan_409 Treatment_1_Morgan_410 Treatment_1_Morgan_411 Treatment_1_Morgan_412 Treatment_1_Morgan_413 Treatment_1_Morgan_414 Treatment_1_Morgan_415 Treatment_1_Morgan_416 Treatment_1_Morgan_417 Treatment_1_Morgan_418 Treatment_1_Morgan_419 Treatment_1_Morgan_420 Treatment_1_Morgan_421 Treatment_1_Morgan_422 Treatment_1_Morgan_423 Treatment_1_Morgan_424 Treatment_1_Morgan_425 Treatment_1_Morgan_426 Treatment_1_Morgan_427 Treatment_1_Morgan_428 Treatment_1_Morgan_429 Treatment_1_Morgan_430 Treatment_1_Morgan_431 Treatment_1_Morgan_432 Treatment_1_Morgan_433 Treatment_1_Morgan_434 Treatment_1_Morgan_435 Treatment_1_Morgan_436 Treatment_1_Morgan_437 Treatment_1_Morgan_438 Treatment_1_Morgan_439 Treatment_1_Morgan_440 Treatment_1_Morgan_441 Treatment_1_Morgan_442 Treatment_1_Morgan_443 Treatment_1_Morgan_444 Treatment_1_Morgan_445 Treatment_1_Morgan_446 Treatment_1_Morgan_447 Treatment_1_Morgan_448 Treatment_1_Morgan_449 Treatment_1_Morgan_450 Treatment_1_Morgan_451 Treatment_1_Morgan_452 Treatment_1_Morgan_453 Treatment_1_Morgan_454 Treatment_1_Morgan_455 Treatment_1_Morgan_456 Treatment_1_Morgan_457 Treatment_1_Morgan_458 Treatment_1_Morgan_459 Treatment_1_Morgan_460 Treatment_1_Morgan_461 Treatment_1_Morgan_462 Treatment_1_Morgan_463 Treatment_1_Morgan_464 Treatment_1_Morgan_465 Treatment_1_Morgan_466 Treatment_1_Morgan_467 Treatment_1_Morgan_468 Treatment_1_Morgan_469 Treatment_1_Morgan_470 Treatment_1_Morgan_471 Treatment_1_Morgan_472 Treatment_1_Morgan_473 Treatment_1_Morgan_474 Treatment_1_Morgan_475 Treatment_1_Morgan_476 Treatment_1_Morgan_477 Treatment_1_Morgan_478 Treatment_1_Morgan_479 Treatment_1_Morgan_480 Treatment_1_Morgan_481 Treatment_1_Morgan_482 Treatment_1_Morgan_483 Treatment_1_Morgan_484 Treatment_1_Morgan_485 Treatment_1_Morgan_486 Treatment_1_Morgan_487 Treatment_1_Morgan_488 Treatment_1_Morgan_489 Treatment_1_Morgan_490 Treatment_1_Morgan_491 Treatment_1_Morgan_492 Treatment_1_Morgan_493 Treatment_1_Morgan_494 Treatment_1_Morgan_495 Treatment_1_Morgan_496 Treatment_1_Morgan_497 Treatment_1_Morgan_498 Treatment_1_Morgan_499 Treatment_1_Morgan_500 Treatment_1_Morgan_501 Treatment_1_Morgan_502 Treatment_1_Morgan_503 Treatment_1_Morgan_504 Treatment_1_Morgan_505 Treatment_1_Morgan_506 Treatment_1_Morgan_507 Treatment_1_Morgan_508 Treatment_1_Morgan_509 Treatment_1_Morgan_510 Treatment_1_Morgan_511 Treatment_1_Morgan_512 Treatment_1_Morgan_513 Treatment_1_Morgan_514 Treatment_1_Morgan_515 Treatment_1_Morgan_516 Treatment_1_Morgan_517 Treatment_1_Morgan_518 Treatment_1_Morgan_519 Treatment_1_Morgan_520 Treatment_1_Morgan_521 Treatment_1_Morgan_522 Treatment_1_Morgan_523 Treatment_1_Morgan_524 Treatment_1_Morgan_525 Treatment_1_Morgan_526 Treatment_1_Morgan_527 Treatment_1_Morgan_528 Treatment_1_Morgan_529 Treatment_1_Morgan_530 Treatment_1_Morgan_531 Treatment_1_Morgan_532 Treatment_1_Morgan_533 Treatment_1_Morgan_534 Treatment_1_Morgan_535 Treatment_1_Morgan_536 Treatment_1_Morgan_537 Treatment_1_Morgan_538 Treatment_1_Morgan_539 Treatment_1_Morgan_540 Treatment_1_Morgan_541 Treatment_1_Morgan_542 Treatment_1_Morgan_543 Treatment_1_Morgan_544 Treatment_1_Morgan_545 Treatment_1_Morgan_546 Treatment_1_Morgan_547 Treatment_1_Morgan_548 Treatment_1_Morgan_549 Treatment_1_Morgan_550 Treatment_1_Morgan_551 Treatment_1_Morgan_552 Treatment_1_Morgan_553 Treatment_1_Morgan_554 Treatment_1_Morgan_555 Treatment_1_Morgan_556 Treatment_1_Morgan_557 Treatment_1_Morgan_558 Treatment_1_Morgan_559 Treatment_1_Morgan_560 Treatment_1_Morgan_561 Treatment_1_Morgan_562 Treatment_1_Morgan_563 Treatment_1_Morgan_564 Treatment_1_Morgan_565 Treatment_1_Morgan_566 Treatment_1_Morgan_567 Treatment_1_Morgan_568 Treatment_1_Morgan_569 Treatment_1_Morgan_570 Treatment_1_Morgan_571 Treatment_1_Morgan_572 Treatment_1_Morgan_573 Treatment_1_Morgan_574 Treatment_1_Morgan_575 Treatment_1_Morgan_576 Treatment_1_Morgan_577 Treatment_1_Morgan_578 Treatment_1_Morgan_579 Treatment_1_Morgan_580 Treatment_1_Morgan_581 Treatment_1_Morgan_582 Treatment_1_Morgan_583 Treatment_1_Morgan_584 Treatment_1_Morgan_585 Treatment_1_Morgan_586 Treatment_1_Morgan_587 Treatment_1_Morgan_588 Treatment_1_Morgan_589 Treatment_1_Morgan_590 Treatment_1_Morgan_591 Treatment_1_Morgan_592 Treatment_1_Morgan_593 Treatment_1_Morgan_594 Treatment_1_Morgan_595 Treatment_1_Morgan_596 Treatment_1_Morgan_597 Treatment_1_Morgan_598 Treatment_1_Morgan_599 Treatment_1_Morgan_600 Treatment_1_Morgan_601 Treatment_1_Morgan_602 Treatment_1_Morgan_603 Treatment_1_Morgan_604 Treatment_1_Morgan_605 Treatment_1_Morgan_606 Treatment_1_Morgan_607 Treatment_1_Morgan_608 Treatment_1_Morgan_609 Treatment_1_Morgan_610 Treatment_1_Morgan_611 Treatment_1_Morgan_612 Treatment_1_Morgan_613 Treatment_1_Morgan_614 Treatment_1_Morgan_615 Treatment_1_Morgan_616 Treatment_1_Morgan_617 Treatment_1_Morgan_618 Treatment_1_Morgan_619 Treatment_1_Morgan_620 Treatment_1_Morgan_621 Treatment_1_Morgan_622 Treatment_1_Morgan_623 Treatment_1_Morgan_624 Treatment_1_Morgan_625 Treatment_1_Morgan_626 Treatment_1_Morgan_627 Treatment_1_Morgan_628 Treatment_1_Morgan_629 Treatment_1_Morgan_630 Treatment_1_Morgan_631 Treatment_1_Morgan_632 Treatment_1_Morgan_633 Treatment_1_Morgan_634 Treatment_1_Morgan_635 Treatment_1_Morgan_636 Treatment_1_Morgan_637 Treatment_1_Morgan_638 Treatment_1_Morgan_639 Treatment_1_Morgan_640 Treatment_1_Morgan_641 Treatment_1_Morgan_642 Treatment_1_Morgan_643 Treatment_1_Morgan_644 Treatment_1_Morgan_645 Treatment_1_Morgan_646 Treatment_1_Morgan_647 Treatment_1_Morgan_648 Treatment_1_Morgan_649 Treatment_1_Morgan_650 Treatment_1_Morgan_651 Treatment_1_Morgan_652 Treatment_1_Morgan_653 Treatment_1_Morgan_654 Treatment_1_Morgan_655 Treatment_1_Morgan_656 Treatment_1_Morgan_657 Treatment_1_Morgan_658 Treatment_1_Morgan_659 Treatment_1_Morgan_660 Treatment_1_Morgan_661 Treatment_1_Morgan_662 Treatment_1_Morgan_663 Treatment_1_Morgan_664 Treatment_1_Morgan_665 Treatment_1_Morgan_666 Treatment_1_Morgan_667 Treatment_1_Morgan_668 Treatment_1_Morgan_669 Treatment_1_Morgan_670 Treatment_1_Morgan_671 Treatment_1_Morgan_672 Treatment_1_Morgan_673 Treatment_1_Morgan_674 Treatment_1_Morgan_675 Treatment_1_Morgan_676 Treatment_1_Morgan_677 Treatment_1_Morgan_678 Treatment_1_Morgan_679 Treatment_1_Morgan_680 Treatment_1_Morgan_681 Treatment_1_Morgan_682 Treatment_1_Morgan_683 Treatment_1_Morgan_684 Treatment_1_Morgan_685 Treatment_1_Morgan_686 Treatment_1_Morgan_687 Treatment_1_Morgan_688 Treatment_1_Morgan_689 Treatment_1_Morgan_690 Treatment_1_Morgan_691 Treatment_1_Morgan_692 Treatment_1_Morgan_693 Treatment_1_Morgan_694 Treatment_1_Morgan_695 Treatment_1_Morgan_696 Treatment_1_Morgan_697 Treatment_1_Morgan_698 Treatment_1_Morgan_699 Treatment_1_Morgan_700 Treatment_1_Morgan_701 Treatment_1_Morgan_702 Treatment_1_Morgan_703 Treatment_1_Morgan_704 Treatment_1_Morgan_705 Treatment_1_Morgan_706 Treatment_1_Morgan_707 Treatment_1_Morgan_708 Treatment_1_Morgan_709 Treatment_1_Morgan_710 Treatment_1_Morgan_711 Treatment_1_Morgan_712 Treatment_1_Morgan_713 Treatment_1_Morgan_714 Treatment_1_Morgan_715 Treatment_1_Morgan_716 Treatment_1_Morgan_717 Treatment_1_Morgan_718 Treatment_1_Morgan_719 Treatment_1_Morgan_720 Treatment_1_Morgan_721 Treatment_1_Morgan_722 Treatment_1_Morgan_723 Treatment_1_Morgan_724 Treatment_1_Morgan_725 Treatment_1_Morgan_726 Treatment_1_Morgan_727 Treatment_1_Morgan_728 Treatment_1_Morgan_729 Treatment_1_Morgan_730 Treatment_1_Morgan_731 Treatment_1_Morgan_732 Treatment_1_Morgan_733 Treatment_1_Morgan_734 Treatment_1_Morgan_735 Treatment_1_Morgan_736 Treatment_1_Morgan_737 Treatment_1_Morgan_738 Treatment_1_Morgan_739 Treatment_1_Morgan_740 Treatment_1_Morgan_741 Treatment_1_Morgan_742 Treatment_1_Morgan_743 Treatment_1_Morgan_744 Treatment_1_Morgan_745 Treatment_1_Morgan_746 Treatment_1_Morgan_747 Treatment_1_Morgan_748 Treatment_1_Morgan_749 Treatment_1_Morgan_750 Treatment_1_Morgan_751 Treatment_1_Morgan_752 Treatment_1_Morgan_753 Treatment_1_Morgan_754 Treatment_1_Morgan_755 Treatment_1_Morgan_756 Treatment_1_Morgan_757 Treatment_1_Morgan_758 Treatment_1_Morgan_759 Treatment_1_Morgan_760 Treatment_1_Morgan_761 Treatment_1_Morgan_762 Treatment_1_Morgan_763 Treatment_1_Morgan_764 Treatment_1_Morgan_765 Treatment_1_Morgan_766 Treatment_1_Morgan_767 Treatment_1_Morgan_768 Treatment_1_Morgan_769 Treatment_1_Morgan_770 Treatment_1_Morgan_771 Treatment_1_Morgan_772 Treatment_1_Morgan_773 Treatment_1_Morgan_774 Treatment_1_Morgan_775 Treatment_1_Morgan_776 Treatment_1_Morgan_777 Treatment_1_Morgan_778 Treatment_1_Morgan_779 Treatment_1_Morgan_780 Treatment_1_Morgan_781 Treatment_1_Morgan_782 Treatment_1_Morgan_783 Treatment_1_Morgan_784 Treatment_1_Morgan_785 Treatment_1_Morgan_786 Treatment_1_Morgan_787 Treatment_1_Morgan_788 Treatment_1_Morgan_789 Treatment_1_Morgan_790 Treatment_1_Morgan_791 Treatment_1_Morgan_792 Treatment_1_Morgan_793 Treatment_1_Morgan_794 Treatment_1_Morgan_795 Treatment_1_Morgan_796 Treatment_1_Morgan_797 Treatment_1_Morgan_798 Treatment_1_Morgan_799 Treatment_1_Morgan_800 Treatment_1_Morgan_801 Treatment_1_Morgan_802 Treatment_1_Morgan_803 Treatment_1_Morgan_804 Treatment_1_Morgan_805 Treatment_1_Morgan_806 Treatment_1_Morgan_807 Treatment_1_Morgan_808 Treatment_1_Morgan_809 Treatment_1_Morgan_810 Treatment_1_Morgan_811 Treatment_1_Morgan_812 Treatment_1_Morgan_813 Treatment_1_Morgan_814 Treatment_1_Morgan_815 Treatment_1_Morgan_816 Treatment_1_Morgan_817 Treatment_1_Morgan_818 Treatment_1_Morgan_819 Treatment_1_Morgan_820 Treatment_1_Morgan_821 Treatment_1_Morgan_822 Treatment_1_Morgan_823 Treatment_1_Morgan_824 Treatment_1_Morgan_825 Treatment_1_Morgan_826 Treatment_1_Morgan_827 Treatment_1_Morgan_828 Treatment_1_Morgan_829 Treatment_1_Morgan_830 Treatment_1_Morgan_831 Treatment_1_Morgan_832 Treatment_1_Morgan_833 Treatment_1_Morgan_834 Treatment_1_Morgan_835 Treatment_1_Morgan_836 Treatment_1_Morgan_837 Treatment_1_Morgan_838 Treatment_1_Morgan_839 Treatment_1_Morgan_840 Treatment_1_Morgan_841 Treatment_1_Morgan_842 Treatment_1_Morgan_843 Treatment_1_Morgan_844 Treatment_1_Morgan_845 Treatment_1_Morgan_846 Treatment_1_Morgan_847 Treatment_1_Morgan_848 Treatment_1_Morgan_849 Treatment_1_Morgan_850 Treatment_1_Morgan_851 Treatment_1_Morgan_852 Treatment_1_Morgan_853 Treatment_1_Morgan_854 Treatment_1_Morgan_855 Treatment_1_Morgan_856 Treatment_1_Morgan_857 Treatment_1_Morgan_858 Treatment_1_Morgan_859 Treatment_1_Morgan_860 Treatment_1_Morgan_861 Treatment_1_Morgan_862 Treatment_1_Morgan_863 Treatment_1_Morgan_864 Treatment_1_Morgan_865 Treatment_1_Morgan_866 Treatment_1_Morgan_867 Treatment_1_Morgan_868 Treatment_1_Morgan_869 Treatment_1_Morgan_870 Treatment_1_Morgan_871 Treatment_1_Morgan_872 Treatment_1_Morgan_873 Treatment_1_Morgan_874 Treatment_1_Morgan_875 Treatment_1_Morgan_876 Treatment_1_Morgan_877 Treatment_1_Morgan_878 Treatment_1_Morgan_879 Treatment_1_Morgan_880 Treatment_1_Morgan_881 Treatment_1_Morgan_882 Treatment_1_Morgan_883 Treatment_1_Morgan_884 Treatment_1_Morgan_885 Treatment_1_Morgan_886 Treatment_1_Morgan_887 Treatment_1_Morgan_888 Treatment_1_Morgan_889 Treatment_1_Morgan_890 Treatment_1_Morgan_891 Treatment_1_Morgan_892 Treatment_1_Morgan_893 Treatment_1_Morgan_894 Treatment_1_Morgan_895 Treatment_1_Morgan_896 Treatment_1_Morgan_897 Treatment_1_Morgan_898 Treatment_1_Morgan_899 Treatment_1_Morgan_900 Treatment_1_Morgan_901 Treatment_1_Morgan_902 Treatment_1_Morgan_903 Treatment_1_Morgan_904 Treatment_1_Morgan_905 Treatment_1_Morgan_906 Treatment_1_Morgan_907 Treatment_1_Morgan_908 Treatment_1_Morgan_909 Treatment_1_Morgan_910 Treatment_1_Morgan_911 Treatment_1_Morgan_912 Treatment_1_Morgan_913 Treatment_1_Morgan_914 Treatment_1_Morgan_915 Treatment_1_Morgan_916 Treatment_1_Morgan_917 Treatment_1_Morgan_918 Treatment_1_Morgan_919 Treatment_1_Morgan_920 Treatment_1_Morgan_921 Treatment_1_Morgan_922 Treatment_1_Morgan_923 Treatment_1_Morgan_924 Treatment_1_Morgan_925 Treatment_1_Morgan_926 Treatment_1_Morgan_927 Treatment_1_Morgan_928 Treatment_1_Morgan_929 Treatment_1_Morgan_930 Treatment_1_Morgan_931 Treatment_1_Morgan_932 Treatment_1_Morgan_933 Treatment_1_Morgan_934 Treatment_1_Morgan_935 Treatment_1_Morgan_936 Treatment_1_Morgan_937 Treatment_1_Morgan_938 Treatment_1_Morgan_939 Treatment_1_Morgan_940 Treatment_1_Morgan_941 Treatment_1_Morgan_942 Treatment_1_Morgan_943 Treatment_1_Morgan_944 Treatment_1_Morgan_945 Treatment_1_Morgan_946 Treatment_1_Morgan_947 Treatment_1_Morgan_948 Treatment_1_Morgan_949 Treatment_1_Morgan_950 Treatment_1_Morgan_951 Treatment_1_Morgan_952 Treatment_1_Morgan_953 Treatment_1_Morgan_954 Treatment_1_Morgan_955 Treatment_1_Morgan_956 Treatment_1_Morgan_957 Treatment_1_Morgan_958 Treatment_1_Morgan_959 Treatment_1_Morgan_960 Treatment_1_Morgan_961 Treatment_1_Morgan_962 Treatment_1_Morgan_963 Treatment_1_Morgan_964 Treatment_1_Morgan_965 Treatment_1_Morgan_966 Treatment_1_Morgan_967 Treatment_1_Morgan_968 Treatment_1_Morgan_969 Treatment_1_Morgan_970 Treatment_1_Morgan_971 Treatment_1_Morgan_972 Treatment_1_Morgan_973 Treatment_1_Morgan_974 Treatment_1_Morgan_975 Treatment_1_Morgan_976 Treatment_1_Morgan_977 Treatment_1_Morgan_978 Treatment_1_Morgan_979 Treatment_1_Morgan_980 Treatment_1_Morgan_981 Treatment_1_Morgan_982 Treatment_1_Morgan_983 Treatment_1_Morgan_984 Treatment_1_Morgan_985 Treatment_1_Morgan_986 Treatment_1_Morgan_987 Treatment_1_Morgan_988 Treatment_1_Morgan_989 Treatment_1_Morgan_990 Treatment_1_Morgan_991 Treatment_1_Morgan_992 Treatment_1_Morgan_993 Treatment_1_Morgan_994 Treatment_1_Morgan_995 Treatment_1_Morgan_996 Treatment_1_Morgan_997 Treatment_1_Morgan_998 Treatment_1_Morgan_999 Treatment_1_Morgan_1000 Treatment_1_Morgan_1001 Treatment_1_Morgan_1002 Treatment_1_Morgan_1003 Treatment_1_Morgan_1004 Treatment_1_Morgan_1005 Treatment_1_Morgan_1006 Treatment_1_Morgan_1007 Treatment_1_Morgan_1008 Treatment_1_Morgan_1009 Treatment_1_Morgan_1010 Treatment_1_Morgan_1011 Treatment_1_Morgan_1012 Treatment_1_Morgan_1013 Treatment_1_Morgan_1014 Treatment_1_Morgan_1015 Treatment_1_Morgan_1016 Treatment_1_Morgan_1017 Treatment_1_Morgan_1018 Treatment_1_Morgan_1019 Treatment_1_Morgan_1020 Treatment_1_Morgan_1021 Treatment_1_Morgan_1022 Treatment_1_Morgan_1023 Treatment_1_Morgan_1024 Treatment_1_FP2_1 Treatment_1_FP2_2 Treatment_1_FP2_3 Treatment_1_FP2_4 Treatment_1_FP2_5 Treatment_1_FP2_6 Treatment_1_FP2_7 Treatment_1_FP2_8 Treatment_1_FP2_9 Treatment_1_FP2_10 Treatment_1_FP2_11 Treatment_1_FP2_12 Treatment_1_FP2_13 Treatment_1_FP2_14 Treatment_1_FP2_15 Treatment_1_FP2_16 Treatment_1_FP2_17 Treatment_1_FP2_18 Treatment_1_FP2_19 Treatment_1_FP2_20 Treatment_1_FP2_21 Treatment_1_FP2_22 Treatment_1_FP2_23 Treatment_1_FP2_24 Treatment_1_FP2_25 Treatment_1_FP2_26 Treatment_1_FP2_27 Treatment_1_FP2_28 Treatment_1_FP2_29 Treatment_1_FP2_30 Treatment_1_FP2_31 Treatment_1_FP2_32 Treatment_1_FP2_33 Treatment_1_FP2_34 Treatment_1_FP2_35 Treatment_1_FP2_36 Treatment_1_FP2_37 Treatment_1_FP2_38 Treatment_1_FP2_39 Treatment_1_FP2_40 Treatment_1_FP2_41 Treatment_1_FP2_42 Treatment_1_FP2_43 Treatment_1_FP2_44 Treatment_1_FP2_45 Treatment_1_FP2_46 Treatment_1_FP2_47 Treatment_1_FP2_48 Treatment_1_FP2_49 Treatment_1_FP2_50 Treatment_1_FP2_51 Treatment_1_FP2_52 Treatment_1_FP2_53 Treatment_1_FP2_54 Treatment_1_FP2_55 Treatment_1_FP2_56 Treatment_1_FP2_57 Treatment_1_FP2_58 Treatment_1_FP2_59 Treatment_1_FP2_60 Treatment_1_FP2_61 Treatment_1_FP2_62 Treatment_1_FP2_63 Treatment_1_FP2_64 Treatment_1_FP2_65 Treatment_1_FP2_66 Treatment_1_FP2_67 Treatment_1_FP2_68 Treatment_1_FP2_69 Treatment_1_FP2_70 Treatment_1_FP2_71 Treatment_1_FP2_72 Treatment_1_FP2_73 Treatment_1_FP2_74 Treatment_1_FP2_75 Treatment_1_FP2_76 Treatment_1_FP2_77 Treatment_1_FP2_78 Treatment_1_FP2_79 Treatment_1_FP2_80 Treatment_1_FP2_81 Treatment_1_FP2_82 Treatment_1_FP2_83 Treatment_1_FP2_84 Treatment_1_FP2_85 Treatment_1_FP2_86 Treatment_1_FP2_87 Treatment_1_FP2_88 Treatment_1_FP2_89 Treatment_1_FP2_90 Treatment_1_FP2_91 Treatment_1_FP2_92 Treatment_1_FP2_93 Treatment_1_FP2_94 Treatment_1_FP2_95 Treatment_1_FP2_96 Treatment_1_FP2_97 Treatment_1_FP2_98 Treatment_1_FP2_99 Treatment_1_FP2_100 Treatment_1_FP2_101 Treatment_1_FP2_102 Treatment_1_FP2_103 Treatment_1_FP2_104 Treatment_1_FP2_105 Treatment_1_FP2_106 Treatment_1_FP2_107 Treatment_1_FP2_108 Treatment_1_FP2_109 Treatment_1_FP2_110 Treatment_1_FP2_111 Treatment_1_FP2_112 Treatment_1_FP2_113 Treatment_1_FP2_114 Treatment_1_FP2_115 Treatment_1_FP2_116 Treatment_1_FP2_117 Treatment_1_FP2_118 Treatment_1_FP2_119 Treatment_1_FP2_120 Treatment_1_FP2_121 Treatment_1_FP2_122 Treatment_1_FP2_123 Treatment_1_FP2_124 Treatment_1_FP2_125 Treatment_1_FP2_126 Treatment_1_FP2_127 Treatment_1_FP2_128 Treatment_1_FP2_129 Treatment_1_FP2_130 Treatment_1_FP2_131 Treatment_1_FP2_132 Treatment_1_FP2_133 Treatment_1_FP2_134 Treatment_1_FP2_135 Treatment_1_FP2_136 Treatment_1_FP2_137 Treatment_1_FP2_138 Treatment_1_FP2_139 Treatment_1_FP2_140 Treatment_1_FP2_141 Treatment_1_FP2_142 Treatment_1_FP2_143 Treatment_1_FP2_144 Treatment_1_FP2_145 Treatment_1_FP2_146 Treatment_1_FP2_147 Treatment_1_FP2_148 Treatment_1_FP2_149 Treatment_1_FP2_150 Treatment_1_FP2_151 Treatment_1_FP2_152 Treatment_1_FP2_153 Treatment_1_FP2_154 Treatment_1_FP2_155 Treatment_1_FP2_156 Treatment_1_FP2_157 Treatment_1_FP2_158 Treatment_1_FP2_159 Treatment_1_FP2_160 Treatment_1_FP2_161 Treatment_1_FP2_162 Treatment_1_FP2_163 Treatment_1_FP2_164 Treatment_1_FP2_165 Treatment_1_FP2_166 Treatment_1_FP2_167 Treatment_1_FP2_168 Treatment_1_FP2_169 Treatment_1_FP2_170 Treatment_1_FP2_171 Treatment_1_FP2_172 Treatment_1_FP2_173 Treatment_1_FP2_174 Treatment_1_FP2_175 Treatment_1_FP2_176 Treatment_1_FP2_177 Treatment_1_FP2_178 Treatment_1_FP2_179 Treatment_1_FP2_180 Treatment_1_FP2_181 Treatment_1_FP2_182 Treatment_1_FP2_183 Treatment_1_FP2_184 Treatment_1_FP2_185 Treatment_1_FP2_186 Treatment_1_FP2_187 Treatment_1_FP2_188 Treatment_1_FP2_189 Treatment_1_FP2_190 Treatment_1_FP2_191 Treatment_1_FP2_192 Treatment_1_FP2_193 Treatment_1_FP2_194 Treatment_1_FP2_195 Treatment_1_FP2_196 Treatment_1_FP2_197 Treatment_1_FP2_198 Treatment_1_FP2_199 Treatment_1_FP2_200 Treatment_1_FP2_201 Treatment_1_FP2_202 Treatment_1_FP2_203 Treatment_1_FP2_204 Treatment_1_FP2_205 Treatment_1_FP2_206 Treatment_1_FP2_207 Treatment_1_FP2_208 Treatment_1_FP2_209 Treatment_1_FP2_210 Treatment_1_FP2_211 Treatment_1_FP2_212 Treatment_1_FP2_213 Treatment_1_FP2_214 Treatment_1_FP2_215 Treatment_1_FP2_216 Treatment_1_FP2_217 Treatment_1_FP2_218 Treatment_1_FP2_219 Treatment_1_FP2_220 Treatment_1_FP2_221 Treatment_1_FP2_222 Treatment_1_FP2_223 Treatment_1_FP2_224 Treatment_1_FP2_225 Treatment_1_FP2_226 Treatment_1_FP2_227 Treatment_1_FP2_228 Treatment_1_FP2_229 Treatment_1_FP2_230 Treatment_1_FP2_231 Treatment_1_FP2_232 Treatment_1_FP2_233 Treatment_1_FP2_234 Treatment_1_FP2_235 Treatment_1_FP2_236 Treatment_1_FP2_237 Treatment_1_FP2_238 Treatment_1_FP2_239 Treatment_1_FP2_240 Treatment_1_FP2_241 Treatment_1_FP2_242 Treatment_1_FP2_243 Treatment_1_FP2_244 Treatment_1_FP2_245 Treatment_1_FP2_246 Treatment_1_FP2_247 Treatment_1_FP2_248 Treatment_1_FP2_249 Treatment_1_FP2_250 Treatment_1_FP2_251 Treatment_1_FP2_252 Treatment_1_FP2_253 Treatment_1_FP2_254 Treatment_1_FP2_255 Treatment_1_FP2_256 Treatment_1_FP2_257 Treatment_1_FP2_258 Treatment_1_FP2_259 Treatment_1_FP2_260 Treatment_1_FP2_261 Treatment_1_FP2_262 Treatment_1_FP2_263 Treatment_1_FP2_264 Treatment_1_FP2_265 Treatment_1_FP2_266 Treatment_1_FP2_267 Treatment_1_FP2_268 Treatment_1_FP2_269 Treatment_1_FP2_270 Treatment_1_FP2_271 Treatment_1_FP2_272 Treatment_1_FP2_273 Treatment_1_FP2_274 Treatment_1_FP2_275 Treatment_1_FP2_276 Treatment_1_FP2_277 Treatment_1_FP2_278 Treatment_1_FP2_279 Treatment_1_FP2_280 Treatment_1_FP2_281 Treatment_1_FP2_282 Treatment_1_FP2_283 Treatment_1_FP2_284 Treatment_1_FP2_285 Treatment_1_FP2_286 Treatment_1_FP2_287 Treatment_1_FP2_288 Treatment_1_FP2_289 Treatment_1_FP2_290 Treatment_1_FP2_291 Treatment_1_FP2_292 Treatment_1_FP2_293 Treatment_1_FP2_294 Treatment_1_FP2_295 Treatment_1_FP2_296 Treatment_1_FP2_297 Treatment_1_FP2_298 Treatment_1_FP2_299 Treatment_1_FP2_300 Treatment_1_FP2_301 Treatment_1_FP2_302 Treatment_1_FP2_303 Treatment_1_FP2_304 Treatment_1_FP2_305 Treatment_1_FP2_306 Treatment_1_FP2_307 Treatment_1_FP2_308 Treatment_1_FP2_309 Treatment_1_FP2_310 Treatment_1_FP2_311 Treatment_1_FP2_312 Treatment_1_FP2_313 Treatment_1_FP2_314 Treatment_1_FP2_315 Treatment_1_FP2_316 Treatment_1_FP2_317 Treatment_1_FP2_318 Treatment_1_FP2_319 Treatment_1_FP2_320 Treatment_1_FP2_321 Treatment_1_FP2_322 Treatment_1_FP2_323 Treatment_1_FP2_324 Treatment_1_FP2_325 Treatment_1_FP2_326 Treatment_1_FP2_327 Treatment_1_FP2_328 Treatment_1_FP2_329 Treatment_1_FP2_330 Treatment_1_FP2_331 Treatment_1_FP2_332 Treatment_1_FP2_333 Treatment_1_FP2_334 Treatment_1_FP2_335 Treatment_1_FP2_336 Treatment_1_FP2_337 Treatment_1_FP2_338 Treatment_1_FP2_339 Treatment_1_FP2_340 Treatment_1_FP2_341 Treatment_1_FP2_342 Treatment_1_FP2_343 Treatment_1_FP2_344 Treatment_1_FP2_345 Treatment_1_FP2_346 Treatment_1_FP2_347 Treatment_1_FP2_348 Treatment_1_FP2_349 Treatment_1_FP2_350 Treatment_1_FP2_351 Treatment_1_FP2_352 Treatment_1_FP2_353 Treatment_1_FP2_354 Treatment_1_FP2_355 Treatment_1_FP2_356 Treatment_1_FP2_357 Treatment_1_FP2_358 Treatment_1_FP2_359 Treatment_1_FP2_360 Treatment_1_FP2_361 Treatment_1_FP2_362 Treatment_1_FP2_363 Treatment_1_FP2_364 Treatment_1_FP2_365 Treatment_1_FP2_366 Treatment_1_FP2_367 Treatment_1_FP2_368 Treatment_1_FP2_369 Treatment_1_FP2_370 Treatment_1_FP2_371 Treatment_1_FP2_372 Treatment_1_FP2_373 Treatment_1_FP2_374 Treatment_1_FP2_375 Treatment_1_FP2_376 Treatment_1_FP2_377 Treatment_1_FP2_378 Treatment_1_FP2_379 Treatment_1_FP2_380 Treatment_1_FP2_381 Treatment_1_FP2_382 Treatment_1_FP2_383 Treatment_1_FP2_384 Treatment_1_FP2_385 Treatment_1_FP2_386 Treatment_1_FP2_387 Treatment_1_FP2_388 Treatment_1_FP2_389 Treatment_1_FP2_390 Treatment_1_FP2_391 Treatment_1_FP2_392 Treatment_1_FP2_393 Treatment_1_FP2_394 Treatment_1_FP2_395 Treatment_1_FP2_396 Treatment_1_FP2_397 Treatment_1_FP2_398 Treatment_1_FP2_399 Treatment_1_FP2_400 Treatment_1_FP2_401 Treatment_1_FP2_402 Treatment_1_FP2_403 Treatment_1_FP2_404 Treatment_1_FP2_405 Treatment_1_FP2_406 Treatment_1_FP2_407 Treatment_1_FP2_408 Treatment_1_FP2_409 Treatment_1_FP2_410 Treatment_1_FP2_411 Treatment_1_FP2_412 Treatment_1_FP2_413 Treatment_1_FP2_414 Treatment_1_FP2_415 Treatment_1_FP2_416 Treatment_1_FP2_417 Treatment_1_FP2_418 Treatment_1_FP2_419 Treatment_1_FP2_420 Treatment_1_FP2_421 Treatment_1_FP2_422 Treatment_1_FP2_423 Treatment_1_FP2_424 Treatment_1_FP2_425 Treatment_1_FP2_426 Treatment_1_FP2_427 Treatment_1_FP2_428 Treatment_1_FP2_429 Treatment_1_FP2_430 Treatment_1_FP2_431 Treatment_1_FP2_432 Treatment_1_FP2_433 Treatment_1_FP2_434 Treatment_1_FP2_435 Treatment_1_FP2_436 Treatment_1_FP2_437 Treatment_1_FP2_438 Treatment_1_FP2_439 Treatment_1_FP2_440 Treatment_1_FP2_441 Treatment_1_FP2_442 Treatment_1_FP2_443 Treatment_1_FP2_444 Treatment_1_FP2_445 Treatment_1_FP2_446 Treatment_1_FP2_447 Treatment_1_FP2_448 Treatment_1_FP2_449 Treatment_1_FP2_450 Treatment_1_FP2_451 Treatment_1_FP2_452 Treatment_1_FP2_453 Treatment_1_FP2_454 Treatment_1_FP2_455 Treatment_1_FP2_456 Treatment_1_FP2_457 Treatment_1_FP2_458 Treatment_1_FP2_459 Treatment_1_FP2_460 Treatment_1_FP2_461 Treatment_1_FP2_462 Treatment_1_FP2_463 Treatment_1_FP2_464 Treatment_1_FP2_465 Treatment_1_FP2_466 Treatment_1_FP2_467 Treatment_1_FP2_468 Treatment_1_FP2_469 Treatment_1_FP2_470 Treatment_1_FP2_471 Treatment_1_FP2_472 Treatment_1_FP2_473 Treatment_1_FP2_474 Treatment_1_FP2_475 Treatment_1_FP2_476 Treatment_1_FP2_477 Treatment_1_FP2_478 Treatment_1_FP2_479 Treatment_1_FP2_480 Treatment_1_FP2_481 Treatment_1_FP2_482 Treatment_1_FP2_483 Treatment_1_FP2_484 Treatment_1_FP2_485 Treatment_1_FP2_486 Treatment_1_FP2_487 Treatment_1_FP2_488 Treatment_1_FP2_489 Treatment_1_FP2_490 Treatment_1_FP2_491 Treatment_1_FP2_492 Treatment_1_FP2_493 Treatment_1_FP2_494 Treatment_1_FP2_495 Treatment_1_FP2_496 Treatment_1_FP2_497 Treatment_1_FP2_498 Treatment_1_FP2_499 Treatment_1_FP2_500 Treatment_1_FP2_501 Treatment_1_FP2_502 Treatment_1_FP2_503 Treatment_1_FP2_504 Treatment_1_FP2_505 Treatment_1_FP2_506 Treatment_1_FP2_507 Treatment_1_FP2_508 Treatment_1_FP2_509 Treatment_1_FP2_510 Treatment_1_FP2_511 Treatment_1_FP2_512 Treatment_1_FP2_513 Treatment_1_FP2_514 Treatment_1_FP2_515 Treatment_1_FP2_516 Treatment_1_FP2_517 Treatment_1_FP2_518 Treatment_1_FP2_519 Treatment_1_FP2_520 Treatment_1_FP2_521 Treatment_1_FP2_522 Treatment_1_FP2_523 Treatment_1_FP2_524 Treatment_1_FP2_525 Treatment_1_FP2_526 Treatment_1_FP2_527 Treatment_1_FP2_528 Treatment_1_FP2_529 Treatment_1_FP2_530 Treatment_1_FP2_531 Treatment_1_FP2_532 Treatment_1_FP2_533 Treatment_1_FP2_534 Treatment_1_FP2_535 Treatment_1_FP2_536 Treatment_1_FP2_537 Treatment_1_FP2_538 Treatment_1_FP2_539 Treatment_1_FP2_540 Treatment_1_FP2_541 Treatment_1_FP2_542 Treatment_1_FP2_543 Treatment_1_FP2_544 Treatment_1_FP2_545 Treatment_1_FP2_546 Treatment_1_FP2_547 Treatment_1_FP2_548 Treatment_1_FP2_549 Treatment_1_FP2_550 Treatment_1_FP2_551 Treatment_1_FP2_552 Treatment_1_FP2_553 Treatment_1_FP2_554 Treatment_1_FP2_555 Treatment_1_FP2_556 Treatment_1_FP2_557 Treatment_1_FP2_558 Treatment_1_FP2_559 Treatment_1_FP2_560 Treatment_1_FP2_561 Treatment_1_FP2_562 Treatment_1_FP2_563 Treatment_1_FP2_564 Treatment_1_FP2_565 Treatment_1_FP2_566 Treatment_1_FP2_567 Treatment_1_FP2_568 Treatment_1_FP2_569 Treatment_1_FP2_570 Treatment_1_FP2_571 Treatment_1_FP2_572 Treatment_1_FP2_573 Treatment_1_FP2_574 Treatment_1_FP2_575 Treatment_1_FP2_576 Treatment_1_FP2_577 Treatment_1_FP2_578 Treatment_1_FP2_579 Treatment_1_FP2_580 Treatment_1_FP2_581 Treatment_1_FP2_582 Treatment_1_FP2_583 Treatment_1_FP2_584 Treatment_1_FP2_585 Treatment_1_FP2_586 Treatment_1_FP2_587 Treatment_1_FP2_588 Treatment_1_FP2_589 Treatment_1_FP2_590 Treatment_1_FP2_591 Treatment_1_FP2_592 Treatment_1_FP2_593 Treatment_1_FP2_594 Treatment_1_FP2_595 Treatment_1_FP2_596 Treatment_1_FP2_597 Treatment_1_FP2_598 Treatment_1_FP2_599 Treatment_1_FP2_600 Treatment_1_FP2_601 Treatment_1_FP2_602 Treatment_1_FP2_603 Treatment_1_FP2_604 Treatment_1_FP2_605 Treatment_1_FP2_606 Treatment_1_FP2_607 Treatment_1_FP2_608 Treatment_1_FP2_609 Treatment_1_FP2_610 Treatment_1_FP2_611 Treatment_1_FP2_612 Treatment_1_FP2_613 Treatment_1_FP2_614 Treatment_1_FP2_615 Treatment_1_FP2_616 Treatment_1_FP2_617 Treatment_1_FP2_618 Treatment_1_FP2_619 Treatment_1_FP2_620 Treatment_1_FP2_621 Treatment_1_FP2_622 Treatment_1_FP2_623 Treatment_1_FP2_624 Treatment_1_FP2_625 Treatment_1_FP2_626 Treatment_1_FP2_627 Treatment_1_FP2_628 Treatment_1_FP2_629 Treatment_1_FP2_630 Treatment_1_FP2_631 Treatment_1_FP2_632 Treatment_1_FP2_633 Treatment_1_FP2_634 Treatment_1_FP2_635 Treatment_1_FP2_636 Treatment_1_FP2_637 Treatment_1_FP2_638 Treatment_1_FP2_639 Treatment_1_FP2_640 Treatment_1_FP2_641 Treatment_1_FP2_642 Treatment_1_FP2_643 Treatment_1_FP2_644 Treatment_1_FP2_645 Treatment_1_FP2_646 Treatment_1_FP2_647 Treatment_1_FP2_648 Treatment_1_FP2_649 Treatment_1_FP2_650 Treatment_1_FP2_651 Treatment_1_FP2_652 Treatment_1_FP2_653 Treatment_1_FP2_654 Treatment_1_FP2_655 Treatment_1_FP2_656 Treatment_1_FP2_657 Treatment_1_FP2_658 Treatment_1_FP2_659 Treatment_1_FP2_660 Treatment_1_FP2_661 Treatment_1_FP2_662 Treatment_1_FP2_663 Treatment_1_FP2_664 Treatment_1_FP2_665 Treatment_1_FP2_666 Treatment_1_FP2_667 Treatment_1_FP2_668 Treatment_1_FP2_669 Treatment_1_FP2_670 Treatment_1_FP2_671 Treatment_1_FP2_672 Treatment_1_FP2_673 Treatment_1_FP2_674 Treatment_1_FP2_675 Treatment_1_FP2_676 Treatment_1_FP2_677 Treatment_1_FP2_678 Treatment_1_FP2_679 Treatment_1_FP2_680 Treatment_1_FP2_681 Treatment_1_FP2_682 Treatment_1_FP2_683 Treatment_1_FP2_684 Treatment_1_FP2_685 Treatment_1_FP2_686 Treatment_1_FP2_687 Treatment_1_FP2_688 Treatment_1_FP2_689 Treatment_1_FP2_690 Treatment_1_FP2_691 Treatment_1_FP2_692 Treatment_1_FP2_693 Treatment_1_FP2_694 Treatment_1_FP2_695 Treatment_1_FP2_696 Treatment_1_FP2_697 Treatment_1_FP2_698 Treatment_1_FP2_699 Treatment_1_FP2_700 Treatment_1_FP2_701 Treatment_1_FP2_702 Treatment_1_FP2_703 Treatment_1_FP2_704 Treatment_1_FP2_705 Treatment_1_FP2_706 Treatment_1_FP2_707 Treatment_1_FP2_708 Treatment_1_FP2_709 Treatment_1_FP2_710 Treatment_1_FP2_711 Treatment_1_FP2_712 Treatment_1_FP2_713 Treatment_1_FP2_714 Treatment_1_FP2_715 Treatment_1_FP2_716 Treatment_1_FP2_717 Treatment_1_FP2_718 Treatment_1_FP2_719 Treatment_1_FP2_720 Treatment_1_FP2_721 Treatment_1_FP2_722 Treatment_1_FP2_723 Treatment_1_FP2_724 Treatment_1_FP2_725 Treatment_1_FP2_726 Treatment_1_FP2_727 Treatment_1_FP2_728 Treatment_1_FP2_729 Treatment_1_FP2_730 Treatment_1_FP2_731 Treatment_1_FP2_732 Treatment_1_FP2_733 Treatment_1_FP2_734 Treatment_1_FP2_735 Treatment_1_FP2_736 Treatment_1_FP2_737 Treatment_1_FP2_738 Treatment_1_FP2_739 Treatment_1_FP2_740 Treatment_1_FP2_741 Treatment_1_FP2_742 Treatment_1_FP2_743 Treatment_1_FP2_744 Treatment_1_FP2_745 Treatment_1_FP2_746 Treatment_1_FP2_747 Treatment_1_FP2_748 Treatment_1_FP2_749 Treatment_1_FP2_750 Treatment_1_FP2_751 Treatment_1_FP2_752 Treatment_1_FP2_753 Treatment_1_FP2_754 Treatment_1_FP2_755 Treatment_1_FP2_756 Treatment_1_FP2_757 Treatment_1_FP2_758 Treatment_1_FP2_759 Treatment_1_FP2_760 Treatment_1_FP2_761 Treatment_1_FP2_762 Treatment_1_FP2_763 Treatment_1_FP2_764 Treatment_1_FP2_765 Treatment_1_FP2_766 Treatment_1_FP2_767 Treatment_1_FP2_768 Treatment_1_FP2_769 Treatment_1_FP2_770 Treatment_1_FP2_771 Treatment_1_FP2_772 Treatment_1_FP2_773 Treatment_1_FP2_774 Treatment_1_FP2_775 Treatment_1_FP2_776 Treatment_1_FP2_777 Treatment_1_FP2_778 Treatment_1_FP2_779 Treatment_1_FP2_780 Treatment_1_FP2_781 Treatment_1_FP2_782 Treatment_1_FP2_783 Treatment_1_FP2_784 Treatment_1_FP2_785 Treatment_1_FP2_786 Treatment_1_FP2_787 Treatment_1_FP2_788 Treatment_1_FP2_789 Treatment_1_FP2_790 Treatment_1_FP2_791 Treatment_1_FP2_792 Treatment_1_FP2_793 Treatment_1_FP2_794 Treatment_1_FP2_795 Treatment_1_FP2_796 Treatment_1_FP2_797 Treatment_1_FP2_798 Treatment_1_FP2_799 Treatment_1_FP2_800 Treatment_1_FP2_801 Treatment_1_FP2_802 Treatment_1_FP2_803 Treatment_1_FP2_804 Treatment_1_FP2_805 Treatment_1_FP2_806 Treatment_1_FP2_807 Treatment_1_FP2_808 Treatment_1_FP2_809 Treatment_1_FP2_810 Treatment_1_FP2_811 Treatment_1_FP2_812 Treatment_1_FP2_813 Treatment_1_FP2_814 Treatment_1_FP2_815 Treatment_1_FP2_816 Treatment_1_FP2_817 Treatment_1_FP2_818 Treatment_1_FP2_819 Treatment_1_FP2_820 Treatment_1_FP2_821 Treatment_1_FP2_822 Treatment_1_FP2_823 Treatment_1_FP2_824 Treatment_1_FP2_825 Treatment_1_FP2_826 Treatment_1_FP2_827 Treatment_1_FP2_828 Treatment_1_FP2_829 Treatment_1_FP2_830 Treatment_1_FP2_831 Treatment_1_FP2_832 Treatment_1_FP2_833 Treatment_1_FP2_834 Treatment_1_FP2_835 Treatment_1_FP2_836 Treatment_1_FP2_837 Treatment_1_FP2_838 Treatment_1_FP2_839 Treatment_1_FP2_840 Treatment_1_FP2_841 Treatment_1_FP2_842 Treatment_1_FP2_843 Treatment_1_FP2_844 Treatment_1_FP2_845 Treatment_1_FP2_846 Treatment_1_FP2_847 Treatment_1_FP2_848 Treatment_1_FP2_849 Treatment_1_FP2_850 Treatment_1_FP2_851 Treatment_1_FP2_852 Treatment_1_FP2_853 Treatment_1_FP2_854 Treatment_1_FP2_855 Treatment_1_FP2_856 Treatment_1_FP2_857 Treatment_1_FP2_858 Treatment_1_FP2_859 Treatment_1_FP2_860 Treatment_1_FP2_861 Treatment_1_FP2_862 Treatment_1_FP2_863 Treatment_1_FP2_864 Treatment_1_FP2_865 Treatment_1_FP2_866 Treatment_1_FP2_867 Treatment_1_FP2_868 Treatment_1_FP2_869 Treatment_1_FP2_870 Treatment_1_FP2_871 Treatment_1_FP2_872 Treatment_1_FP2_873 Treatment_1_FP2_874 Treatment_1_FP2_875 Treatment_1_FP2_876 Treatment_1_FP2_877 Treatment_1_FP2_878 Treatment_1_FP2_879 Treatment_1_FP2_880 Treatment_1_FP2_881 Treatment_1_FP2_882 Treatment_1_FP2_883 Treatment_1_FP2_884 Treatment_1_FP2_885 Treatment_1_FP2_886 Treatment_1_FP2_887 Treatment_1_FP2_888 Treatment_1_FP2_889 Treatment_1_FP2_890 Treatment_1_FP2_891 Treatment_1_FP2_892 Treatment_1_FP2_893 Treatment_1_FP2_894 Treatment_1_FP2_895 Treatment_1_FP2_896 Treatment_1_FP2_897 Treatment_1_FP2_898 Treatment_1_FP2_899 Treatment_1_FP2_900 Treatment_1_FP2_901 Treatment_1_FP2_902 Treatment_1_FP2_903 Treatment_1_FP2_904 Treatment_1_FP2_905 Treatment_1_FP2_906 Treatment_1_FP2_907 Treatment_1_FP2_908 Treatment_1_FP2_909 Treatment_1_FP2_910 Treatment_1_FP2_911 Treatment_1_FP2_912 Treatment_1_FP2_913 Treatment_1_FP2_914 Treatment_1_FP2_915 Treatment_1_FP2_916 Treatment_1_FP2_917 Treatment_1_FP2_918 Treatment_1_FP2_919 Treatment_1_FP2_920 Treatment_1_FP2_921 Treatment_1_FP2_922 Treatment_1_FP2_923 Treatment_1_FP2_924 Treatment_1_FP2_925 Treatment_1_FP2_926 Treatment_1_FP2_927 Treatment_1_FP2_928 Treatment_1_FP2_929 Treatment_1_FP2_930 Treatment_1_FP2_931 Treatment_1_FP2_932 Treatment_1_FP2_933 Treatment_1_FP2_934 Treatment_1_FP2_935 Treatment_1_FP2_936 Treatment_1_FP2_937 Treatment_1_FP2_938 Treatment_1_FP2_939 Treatment_1_FP2_940 Treatment_1_FP2_941 Treatment_1_FP2_942 Treatment_1_FP2_943 Treatment_1_FP2_944 Treatment_1_FP2_945 Treatment_1_FP2_946 Treatment_1_FP2_947 Treatment_1_FP2_948 Treatment_1_FP2_949 Treatment_1_FP2_950 Treatment_1_FP2_951 Treatment_1_FP2_952 Treatment_1_FP2_953 Treatment_1_FP2_954 Treatment_1_FP2_955 Treatment_1_FP2_956 Treatment_1_FP2_957 Treatment_1_FP2_958 Treatment_1_FP2_959 Treatment_1_FP2_960 Treatment_1_FP2_961 Treatment_1_FP2_962 Treatment_1_FP2_963 Treatment_1_FP2_964 Treatment_1_FP2_965 Treatment_1_FP2_966 Treatment_1_FP2_967 Treatment_1_FP2_968 Treatment_1_FP2_969 Treatment_1_FP2_970 Treatment_1_FP2_971 Treatment_1_FP2_972 Treatment_1_FP2_973 Treatment_1_FP2_974 Treatment_1_FP2_975 Treatment_1_FP2_976 Treatment_1_FP2_977 Treatment_1_FP2_978 Treatment_1_FP2_979 Treatment_1_FP2_980 Treatment_1_FP2_981 Treatment_1_FP2_982 Treatment_1_FP2_983 Treatment_1_FP2_984 Treatment_1_FP2_985 Treatment_1_FP2_986 Treatment_1_FP2_987 Treatment_1_FP2_988 Treatment_1_FP2_989 Treatment_1_FP2_990 Treatment_1_FP2_991 Treatment_1_FP2_992 Treatment_1_FP2_993 Treatment_1_FP2_994 Treatment_1_FP2_995 Treatment_1_FP2_996 Treatment_1_FP2_997 Treatment_1_FP2_998 Treatment_1_FP2_999 Treatment_1_FP2_1000 Treatment_1_FP2_1001 Treatment_1_FP2_1002 Treatment_1_FP2_1003 Treatment_1_FP2_1004 Treatment_1_FP2_1005 Treatment_1_FP2_1006 Treatment_1_FP2_1007 Treatment_1_FP2_1008 Treatment_1_FP2_1009 Treatment_1_FP2_1010 Treatment_1_FP2_1011 Treatment_1_FP2_1012 Treatment_1_FP2_1013 Treatment_1_FP2_1014 Treatment_1_FP2_1015 Treatment_1_FP2_1016 Treatment_1_FP2_1017 Treatment_1_FP2_1018 Treatment_1_FP2_1019 Treatment_1_FP2_1020 Treatment_1_FP2_1021 Treatment_1_FP2_1022 Treatment_1_FP2_1023 Treatment_1_FP2_1024 Treatment_1_FP3_1 Treatment_1_FP3_2 Treatment_1_FP3_3 Treatment_1_FP3_4 Treatment_1_FP3_5 Treatment_1_FP3_6 Treatment_1_FP3_7 Treatment_1_FP3_8 Treatment_1_FP3_9 Treatment_1_FP3_10 Treatment_1_FP3_11 Treatment_1_FP3_12 Treatment_1_FP3_13 Treatment_1_FP3_14 Treatment_1_FP3_15 Treatment_1_FP3_16 Treatment_1_FP3_17 Treatment_1_FP3_18 Treatment_1_FP3_19 Treatment_1_FP3_20 Treatment_1_FP3_21 Treatment_1_FP3_22 Treatment_1_FP3_23 Treatment_1_FP3_24 Treatment_1_FP3_25 Treatment_1_FP3_26 Treatment_1_FP3_27 Treatment_1_FP3_28 Treatment_1_FP3_29 Treatment_1_FP3_30 Treatment_1_FP3_31 Treatment_1_FP3_32 Treatment_1_FP3_33 Treatment_1_FP3_34 Treatment_1_FP3_35 Treatment_1_FP3_36 Treatment_1_FP3_37 Treatment_1_FP3_38 Treatment_1_FP3_39 Treatment_1_FP3_40 Treatment_1_FP3_41 Treatment_1_FP3_42 Treatment_1_FP3_43 Treatment_1_FP3_44 Treatment_1_FP3_45 Treatment_1_FP3_46 Treatment_1_FP3_47 Treatment_1_FP3_48 Treatment_1_FP3_49 Treatment_1_FP3_50 Treatment_1_FP3_51 Treatment_1_FP3_52 Treatment_1_FP3_53 Treatment_1_FP3_54 Treatment_1_FP3_55 Treatment_1_FP3_56 Treatment_1_FP4_1 Treatment_1_FP4_2 Treatment_1_FP4_3 Treatment_1_FP4_4 Treatment_1_FP4_5 Treatment_1_FP4_6 Treatment_1_FP4_7 Treatment_1_FP4_8 Treatment_1_FP4_9 Treatment_1_FP4_10 Treatment_1_FP4_11 Treatment_1_FP4_12 Treatment_1_FP4_13 Treatment_1_FP4_14 Treatment_1_FP4_15 Treatment_1_FP4_16 Treatment_1_FP4_17 Treatment_1_FP4_18 Treatment_1_FP4_19 Treatment_1_FP4_20 Treatment_1_FP4_21 Treatment_1_FP4_22 Treatment_1_FP4_23 Treatment_1_FP4_24 Treatment_1_FP4_25 Treatment_1_FP4_26 Treatment_1_FP4_27 Treatment_1_FP4_28 Treatment_1_FP4_29 Treatment_1_FP4_30 Treatment_1_FP4_31 Treatment_1_FP4_32 Treatment_1_FP4_33 Treatment_1_FP4_34 Treatment_1_FP4_35 Treatment_1_FP4_36 Treatment_1_FP4_37 Treatment_1_FP4_38 Treatment_1_FP4_39 Treatment_1_FP4_40 Treatment_1_FP4_41 Treatment_1_FP4_42 Treatment_1_FP4_43 Treatment_1_FP4_44 Treatment_1_FP4_45 Treatment_1_FP4_46 Treatment_1_FP4_47 Treatment_1_FP4_48 Treatment_1_FP4_49 Treatment_1_FP4_50 Treatment_1_FP4_51 Treatment_1_FP4_52 Treatment_1_FP4_53 Treatment_1_FP4_54 Treatment_1_FP4_55 Treatment_1_FP4_56 Treatment_1_FP4_57 Treatment_1_FP4_58 Treatment_1_FP4_59 Treatment_1_FP4_60 Treatment_1_FP4_61 Treatment_1_FP4_62 Treatment_1_FP4_63 Treatment_1_FP4_64 Treatment_1_FP4_65 Treatment_1_FP4_66 Treatment_1_FP4_67 Treatment_1_FP4_68 Treatment_1_FP4_69 Treatment_1_FP4_70 Treatment_1_FP4_71 Treatment_1_FP4_72 Treatment_1_FP4_73 Treatment_1_FP4_74 Treatment_1_FP4_75 Treatment_1_FP4_76 Treatment_1_FP4_77 Treatment_1_FP4_78 Treatment_1_FP4_79 Treatment_1_FP4_80 Treatment_1_FP4_81 Treatment_1_FP4_82 Treatment_1_FP4_83 Treatment_1_FP4_84 Treatment_1_FP4_85 Treatment_1_FP4_86 Treatment_1_FP4_87 Treatment_1_FP4_88 Treatment_1_FP4_89 Treatment_1_FP4_90 Treatment_1_FP4_91 Treatment_1_FP4_92 Treatment_1_FP4_93 Treatment_1_FP4_94 Treatment_1_FP4_95 Treatment_1_FP4_96 Treatment_1_FP4_97 Treatment_1_FP4_98 Treatment_1_FP4_99 Treatment_1_FP4_100 Treatment_1_FP4_101 Treatment_1_FP4_102 Treatment_1_FP4_103 Treatment_1_FP4_104 Treatment_1_FP4_105 Treatment_1_FP4_106 Treatment_1_FP4_107 Treatment_1_FP4_108 Treatment_1_FP4_109 Treatment_1_FP4_110 Treatment_1_FP4_111 Treatment_1_FP4_112 Treatment_1_FP4_113 Treatment_1_FP4_114 Treatment_1_FP4_115 Treatment_1_FP4_116 Treatment_1_FP4_117 Treatment_1_FP4_118 Treatment_1_FP4_119 Treatment_1_FP4_120 Treatment_1_FP4_121 Treatment_1_FP4_122 Treatment_1_FP4_123 Treatment_1_FP4_124 Treatment_1_FP4_125 Treatment_1_FP4_126 Treatment_1_FP4_127 Treatment_1_FP4_128 Treatment_1_FP4_129 Treatment_1_FP4_130 Treatment_1_FP4_131 Treatment_1_FP4_132 Treatment_1_FP4_133 Treatment_1_FP4_134 Treatment_1_FP4_135 Treatment_1_FP4_136 Treatment_1_FP4_137 Treatment_1_FP4_138 Treatment_1_FP4_139 Treatment_1_FP4_140 Treatment_1_FP4_141 Treatment_1_FP4_142 Treatment_1_FP4_143 Treatment_1_FP4_144 Treatment_1_FP4_145 Treatment_1_FP4_146 Treatment_1_FP4_147 Treatment_1_FP4_148 Treatment_1_FP4_149 Treatment_1_FP4_150 Treatment_1_FP4_151 Treatment_1_FP4_152 Treatment_1_FP4_153 Treatment_1_FP4_154 Treatment_1_FP4_155 Treatment_1_FP4_156 Treatment_1_FP4_157 Treatment_1_FP4_158 Treatment_1_FP4_159 Treatment_1_FP4_160 Treatment_1_FP4_161 Treatment_1_FP4_162 Treatment_1_FP4_163 Treatment_1_FP4_164 Treatment_1_FP4_165 Treatment_1_FP4_166 Treatment_1_FP4_167 Treatment_1_FP4_168 Treatment_1_FP4_169 Treatment_1_FP4_170 Treatment_1_FP4_171 Treatment_1_FP4_172 Treatment_1_FP4_173 Treatment_1_FP4_174 Treatment_1_FP4_175 Treatment_1_FP4_176 Treatment_1_FP4_177 Treatment_1_FP4_178 Treatment_1_FP4_179 Treatment_1_FP4_180 Treatment_1_FP4_181 Treatment_1_FP4_182 Treatment_1_FP4_183 Treatment_1_FP4_184 Treatment_1_FP4_185 Treatment_1_FP4_186 Treatment_1_FP4_187 Treatment_1_FP4_188 Treatment_1_FP4_189 Treatment_1_FP4_190 Treatment_1_FP4_191 Treatment_1_FP4_192 Treatment_1_FP4_193 Treatment_1_FP4_194 Treatment_1_FP4_195 Treatment_1_FP4_196 Treatment_1_FP4_197 Treatment_1_FP4_198 Treatment_1_FP4_199 Treatment_1_FP4_200 Treatment_1_FP4_201 Treatment_1_FP4_202 Treatment_1_FP4_203 Treatment_1_FP4_204 Treatment_1_FP4_205 Treatment_1_FP4_206 Treatment_1_FP4_207 Treatment_1_FP4_208 Treatment_1_FP4_209 Treatment_1_FP4_210 Treatment_1_FP4_211 Treatment_1_FP4_212 Treatment_1_FP4_213 Treatment_1_FP4_214 Treatment_1_FP4_215 Treatment_1_FP4_216 Treatment_1_FP4_217 Treatment_1_FP4_218 Treatment_1_FP4_219 Treatment_1_FP4_220 Treatment_1_FP4_221 Treatment_1_FP4_222 Treatment_1_FP4_223 Treatment_1_FP4_224 Treatment_1_FP4_225 Treatment_1_FP4_226 Treatment_1_FP4_227 Treatment_1_FP4_228 Treatment_1_FP4_229 Treatment_1_FP4_230 Treatment_1_FP4_231 Treatment_1_FP4_232 Treatment_1_FP4_233 Treatment_1_FP4_234 Treatment_1_FP4_235 Treatment_1_FP4_236 Treatment_1_FP4_237 Treatment_1_FP4_238 Treatment_1_FP4_239 Treatment_1_FP4_240 Treatment_1_FP4_241 Treatment_1_FP4_242 Treatment_1_FP4_243 Treatment_1_FP4_244 Treatment_1_FP4_245 Treatment_1_FP4_246 Treatment_1_FP4_247 Treatment_1_FP4_248 Treatment_1_FP4_249 Treatment_1_FP4_250 Treatment_1_FP4_251 Treatment_1_FP4_252 Treatment_1_FP4_253 Treatment_1_FP4_254 Treatment_1_FP4_255 Treatment_1_FP4_256 Treatment_1_FP4_257 Treatment_1_FP4_258 Treatment_1_FP4_259 Treatment_1_FP4_260 Treatment_1_FP4_261 Treatment_1_FP4_262 Treatment_1_FP4_263 Treatment_1_FP4_264 Treatment_1_FP4_265 Treatment_1_FP4_266 Treatment_1_FP4_267 Treatment_1_FP4_268 Treatment_1_FP4_269 Treatment_1_FP4_270 Treatment_1_FP4_271 Treatment_1_FP4_272 Treatment_1_FP4_273 Treatment_1_FP4_274 Treatment_1_FP4_275 Treatment_1_FP4_276 Treatment_1_FP4_277 Treatment_1_FP4_278 Treatment_1_FP4_279 Treatment_1_FP4_280 Treatment_1_FP4_281 Treatment_1_FP4_282 Treatment_1_FP4_283 Treatment_1_FP4_284 Treatment_1_FP4_285 Treatment_1_FP4_286 Treatment_1_FP4_287 Treatment_1_FP4_288 Treatment_1_FP4_289 Treatment_1_FP4_290 Treatment_1_FP4_291 Treatment_1_FP4_292 Treatment_1_FP4_293 Treatment_1_FP4_294 Treatment_1_FP4_295 Treatment_1_FP4_296 Treatment_1_FP4_297 Treatment_1_FP4_298 Treatment_1_FP4_299 Treatment_1_FP4_300 Treatment_1_FP4_301 Treatment_1_FP4_302 Treatment_1_FP4_303 Treatment_1_FP4_304 Treatment_1_FP4_305 Treatment_1_FP4_306 Treatment_1_FP4_307 Treatment_1_FP4_308 Treatment_1_RDK_1 Treatment_1_RDK_2 Treatment_1_RDK_3 Treatment_1_RDK_4 Treatment_1_RDK_5 Treatment_1_RDK_6 Treatment_1_RDK_7 Treatment_1_RDK_8 Treatment_1_RDK_9 Treatment_1_RDK_10 Treatment_1_RDK_11 Treatment_1_RDK_12 Treatment_1_RDK_13 Treatment_1_RDK_14 Treatment_1_RDK_15 Treatment_1_RDK_16 Treatment_1_RDK_17 Treatment_1_RDK_18 Treatment_1_RDK_19 Treatment_1_RDK_20 Treatment_1_RDK_21 Treatment_1_RDK_22 Treatment_1_RDK_23 Treatment_1_RDK_24 Treatment_1_RDK_25 Treatment_1_RDK_26 Treatment_1_RDK_27 Treatment_1_RDK_28 Treatment_1_RDK_29 Treatment_1_RDK_30 Treatment_1_RDK_31 Treatment_1_RDK_32 Treatment_1_RDK_33 Treatment_1_RDK_34 Treatment_1_RDK_35 Treatment_1_RDK_36 Treatment_1_RDK_37 Treatment_1_RDK_38 Treatment_1_RDK_39 Treatment_1_RDK_40 Treatment_1_RDK_41 Treatment_1_RDK_42 Treatment_1_RDK_43 Treatment_1_RDK_44 Treatment_1_RDK_45 Treatment_1_RDK_46 Treatment_1_RDK_47 Treatment_1_RDK_48 Treatment_1_RDK_49 Treatment_1_RDK_50 Treatment_1_RDK_51 Treatment_1_RDK_52 Treatment_1_RDK_53 Treatment_1_RDK_54 Treatment_1_RDK_55 Treatment_1_RDK_56 Treatment_1_RDK_57 Treatment_1_RDK_58 Treatment_1_RDK_59 Treatment_1_RDK_60 Treatment_1_RDK_61 Treatment_1_RDK_62 Treatment_1_RDK_63 Treatment_1_RDK_64 Treatment_1_RDK_65 Treatment_1_RDK_66 Treatment_1_RDK_67 Treatment_1_RDK_68 Treatment_1_RDK_69 Treatment_1_RDK_70 Treatment_1_RDK_71 Treatment_1_RDK_72 Treatment_1_RDK_73 Treatment_1_RDK_74 Treatment_1_RDK_75 Treatment_1_RDK_76 Treatment_1_RDK_77 Treatment_1_RDK_78 Treatment_1_RDK_79 Treatment_1_RDK_80 Treatment_1_RDK_81 Treatment_1_RDK_82 Treatment_1_RDK_83 Treatment_1_RDK_84 Treatment_1_RDK_85 Treatment_1_RDK_86 Treatment_1_RDK_87 Treatment_1_RDK_88 Treatment_1_RDK_89 Treatment_1_RDK_90 Treatment_1_RDK_91 Treatment_1_RDK_92 Treatment_1_RDK_93 Treatment_1_RDK_94 Treatment_1_RDK_95 Treatment_1_RDK_96 Treatment_1_RDK_97 Treatment_1_RDK_98 Treatment_1_RDK_99 Treatment_1_RDK_100 Treatment_1_RDK_101 Treatment_1_RDK_102 Treatment_1_RDK_103 Treatment_1_RDK_104 Treatment_1_RDK_105 Treatment_1_RDK_106 Treatment_1_RDK_107 Treatment_1_RDK_108 Treatment_1_RDK_109 Treatment_1_RDK_110 Treatment_1_RDK_111 Treatment_1_RDK_112 Treatment_1_RDK_113 Treatment_1_RDK_114 Treatment_1_RDK_115 Treatment_1_RDK_116 Treatment_1_RDK_117 Treatment_1_RDK_118 Treatment_1_RDK_119 Treatment_1_RDK_120 Treatment_1_RDK_121 Treatment_1_RDK_122 Treatment_1_RDK_123 Treatment_1_RDK_124 Treatment_1_RDK_125 Treatment_1_RDK_126 Treatment_1_RDK_127 Treatment_1_RDK_128 Treatment_1_RDK_129 Treatment_1_RDK_130 Treatment_1_RDK_131 Treatment_1_RDK_132 Treatment_1_RDK_133 Treatment_1_RDK_134 Treatment_1_RDK_135 Treatment_1_RDK_136 Treatment_1_RDK_137 Treatment_1_RDK_138 Treatment_1_RDK_139 Treatment_1_RDK_140 Treatment_1_RDK_141 Treatment_1_RDK_142 Treatment_1_RDK_143 Treatment_1_RDK_144 Treatment_1_RDK_145 Treatment_1_RDK_146 Treatment_1_RDK_147 Treatment_1_RDK_148 Treatment_1_RDK_149 Treatment_1_RDK_150 Treatment_1_RDK_151 Treatment_1_RDK_152 Treatment_1_RDK_153 Treatment_1_RDK_154 Treatment_1_RDK_155 Treatment_1_RDK_156 Treatment_1_RDK_157 Treatment_1_RDK_158 Treatment_1_RDK_159 Treatment_1_RDK_160 Treatment_1_RDK_161 Treatment_1_RDK_162 Treatment_1_RDK_163 Treatment_1_RDK_164 Treatment_1_RDK_165 Treatment_1_RDK_166 Treatment_1_RDK_167 Treatment_1_RDK_168 Treatment_1_RDK_169 Treatment_1_RDK_170 Treatment_1_RDK_171 Treatment_1_RDK_172 Treatment_1_RDK_173 Treatment_1_RDK_174 Treatment_1_RDK_175 Treatment_1_RDK_176 Treatment_1_RDK_177 Treatment_1_RDK_178 Treatment_1_RDK_179 Treatment_1_RDK_180 Treatment_1_RDK_181 Treatment_1_RDK_182 Treatment_1_RDK_183 Treatment_1_RDK_184 Treatment_1_RDK_185 Treatment_1_RDK_186 Treatment_1_RDK_187 Treatment_1_RDK_188 Treatment_1_RDK_189 Treatment_1_RDK_190 Treatment_1_RDK_191 Treatment_1_RDK_192 Treatment_1_RDK_193 Treatment_1_RDK_194 Treatment_1_RDK_195 Treatment_1_RDK_196 Treatment_1_RDK_197 Treatment_1_RDK_198 Treatment_1_RDK_199 Treatment_1_RDK_200 Treatment_1_RDK_201 Treatment_1_RDK_202 Treatment_1_RDK_203 Treatment_1_RDK_204 Treatment_1_RDK_205 Treatment_1_RDK_206 Treatment_1_RDK_207 Treatment_1_RDK_208 Treatment_1_RDK_209 Treatment_1_RDK_210 Treatment_1_RDK_211 Treatment_1_RDK_212 Treatment_1_RDK_213 Treatment_1_RDK_214 Treatment_1_RDK_215 Treatment_1_RDK_216 Treatment_1_RDK_217 Treatment_1_RDK_218 Treatment_1_RDK_219 Treatment_1_RDK_220 Treatment_1_RDK_221 Treatment_1_RDK_222 Treatment_1_RDK_223 Treatment_1_RDK_224 Treatment_1_RDK_225 Treatment_1_RDK_226 Treatment_1_RDK_227 Treatment_1_RDK_228 Treatment_1_RDK_229 Treatment_1_RDK_230 Treatment_1_RDK_231 Treatment_1_RDK_232 Treatment_1_RDK_233 Treatment_1_RDK_234 Treatment_1_RDK_235 Treatment_1_RDK_236 Treatment_1_RDK_237 Treatment_1_RDK_238 Treatment_1_RDK_239 Treatment_1_RDK_240 Treatment_1_RDK_241 Treatment_1_RDK_242 Treatment_1_RDK_243 Treatment_1_RDK_244 Treatment_1_RDK_245 Treatment_1_RDK_246 Treatment_1_RDK_247 Treatment_1_RDK_248 Treatment_1_RDK_249 Treatment_1_RDK_250 Treatment_1_RDK_251 Treatment_1_RDK_252 Treatment_1_RDK_253 Treatment_1_RDK_254 Treatment_1_RDK_255 Treatment_1_RDK_256 Treatment_1_RDK_257 Treatment_1_RDK_258 Treatment_1_RDK_259 Treatment_1_RDK_260 Treatment_1_RDK_261 Treatment_1_RDK_262 Treatment_1_RDK_263 Treatment_1_RDK_264 Treatment_1_RDK_265 Treatment_1_RDK_266 Treatment_1_RDK_267 Treatment_1_RDK_268 Treatment_1_RDK_269 Treatment_1_RDK_270 Treatment_1_RDK_271 Treatment_1_RDK_272 Treatment_1_RDK_273 Treatment_1_RDK_274 Treatment_1_RDK_275 Treatment_1_RDK_276 Treatment_1_RDK_277 Treatment_1_RDK_278 Treatment_1_RDK_279 Treatment_1_RDK_280 Treatment_1_RDK_281 Treatment_1_RDK_282 Treatment_1_RDK_283 Treatment_1_RDK_284 Treatment_1_RDK_285 Treatment_1_RDK_286 Treatment_1_RDK_287 Treatment_1_RDK_288 Treatment_1_RDK_289 Treatment_1_RDK_290 Treatment_1_RDK_291 Treatment_1_RDK_292 Treatment_1_RDK_293 Treatment_1_RDK_294 Treatment_1_RDK_295 Treatment_1_RDK_296 Treatment_1_RDK_297 Treatment_1_RDK_298 Treatment_1_RDK_299 Treatment_1_RDK_300 Treatment_1_RDK_301 Treatment_1_RDK_302 Treatment_1_RDK_303 Treatment_1_RDK_304 Treatment_1_RDK_305 Treatment_1_RDK_306 Treatment_1_RDK_307 Treatment_1_RDK_308 Treatment_1_RDK_309 Treatment_1_RDK_310 Treatment_1_RDK_311 Treatment_1_RDK_312 Treatment_1_RDK_313 Treatment_1_RDK_314 Treatment_1_RDK_315 Treatment_1_RDK_316 Treatment_1_RDK_317 Treatment_1_RDK_318 Treatment_1_RDK_319 Treatment_1_RDK_320 Treatment_1_RDK_321 Treatment_1_RDK_322 Treatment_1_RDK_323 Treatment_1_RDK_324 Treatment_1_RDK_325 Treatment_1_RDK_326 Treatment_1_RDK_327 Treatment_1_RDK_328 Treatment_1_RDK_329 Treatment_1_RDK_330 Treatment_1_RDK_331 Treatment_1_RDK_332 Treatment_1_RDK_333 Treatment_1_RDK_334 Treatment_1_RDK_335 Treatment_1_RDK_336 Treatment_1_RDK_337 Treatment_1_RDK_338 Treatment_1_RDK_339 Treatment_1_RDK_340 Treatment_1_RDK_341 Treatment_1_RDK_342 Treatment_1_RDK_343 Treatment_1_RDK_344 Treatment_1_RDK_345 Treatment_1_RDK_346 Treatment_1_RDK_347 Treatment_1_RDK_348 Treatment_1_RDK_349 Treatment_1_RDK_350 Treatment_1_RDK_351 Treatment_1_RDK_352 Treatment_1_RDK_353 Treatment_1_RDK_354 Treatment_1_RDK_355 Treatment_1_RDK_356 Treatment_1_RDK_357 Treatment_1_RDK_358 Treatment_1_RDK_359 Treatment_1_RDK_360 Treatment_1_RDK_361 Treatment_1_RDK_362 Treatment_1_RDK_363 Treatment_1_RDK_364 Treatment_1_RDK_365 Treatment_1_RDK_366 Treatment_1_RDK_367 Treatment_1_RDK_368 Treatment_1_RDK_369 Treatment_1_RDK_370 Treatment_1_RDK_371 Treatment_1_RDK_372 Treatment_1_RDK_373 Treatment_1_RDK_374 Treatment_1_RDK_375 Treatment_1_RDK_376 Treatment_1_RDK_377 Treatment_1_RDK_378 Treatment_1_RDK_379 Treatment_1_RDK_380 Treatment_1_RDK_381 Treatment_1_RDK_382 Treatment_1_RDK_383 Treatment_1_RDK_384 Treatment_1_RDK_385 Treatment_1_RDK_386 Treatment_1_RDK_387 Treatment_1_RDK_388 Treatment_1_RDK_389 Treatment_1_RDK_390 Treatment_1_RDK_391 Treatment_1_RDK_392 Treatment_1_RDK_393 Treatment_1_RDK_394 Treatment_1_RDK_395 Treatment_1_RDK_396 Treatment_1_RDK_397 Treatment_1_RDK_398 Treatment_1_RDK_399 Treatment_1_RDK_400 Treatment_1_RDK_401 Treatment_1_RDK_402 Treatment_1_RDK_403 Treatment_1_RDK_404 Treatment_1_RDK_405 Treatment_1_RDK_406 Treatment_1_RDK_407 Treatment_1_RDK_408 Treatment_1_RDK_409 Treatment_1_RDK_410 Treatment_1_RDK_411 Treatment_1_RDK_412 Treatment_1_RDK_413 Treatment_1_RDK_414 Treatment_1_RDK_415 Treatment_1_RDK_416 Treatment_1_RDK_417 Treatment_1_RDK_418 Treatment_1_RDK_419 Treatment_1_RDK_420 Treatment_1_RDK_421 Treatment_1_RDK_422 Treatment_1_RDK_423 Treatment_1_RDK_424 Treatment_1_RDK_425 Treatment_1_RDK_426 Treatment_1_RDK_427 Treatment_1_RDK_428 Treatment_1_RDK_429 Treatment_1_RDK_430 Treatment_1_RDK_431 Treatment_1_RDK_432 Treatment_1_RDK_433 Treatment_1_RDK_434 Treatment_1_RDK_435 Treatment_1_RDK_436 Treatment_1_RDK_437 Treatment_1_RDK_438 Treatment_1_RDK_439 Treatment_1_RDK_440 Treatment_1_RDK_441 Treatment_1_RDK_442 Treatment_1_RDK_443 Treatment_1_RDK_444 Treatment_1_RDK_445 Treatment_1_RDK_446 Treatment_1_RDK_447 Treatment_1_RDK_448 Treatment_1_RDK_449 Treatment_1_RDK_450 Treatment_1_RDK_451 Treatment_1_RDK_452 Treatment_1_RDK_453 Treatment_1_RDK_454 Treatment_1_RDK_455 Treatment_1_RDK_456 Treatment_1_RDK_457 Treatment_1_RDK_458 Treatment_1_RDK_459 Treatment_1_RDK_460 Treatment_1_RDK_461 Treatment_1_RDK_462 Treatment_1_RDK_463 Treatment_1_RDK_464 Treatment_1_RDK_465 Treatment_1_RDK_466 Treatment_1_RDK_467 Treatment_1_RDK_468 Treatment_1_RDK_469 Treatment_1_RDK_470 Treatment_1_RDK_471 Treatment_1_RDK_472 Treatment_1_RDK_473 Treatment_1_RDK_474 Treatment_1_RDK_475 Treatment_1_RDK_476 Treatment_1_RDK_477 Treatment_1_RDK_478 Treatment_1_RDK_479 Treatment_1_RDK_480 Treatment_1_RDK_481 Treatment_1_RDK_482 Treatment_1_RDK_483 Treatment_1_RDK_484 Treatment_1_RDK_485 Treatment_1_RDK_486 Treatment_1_RDK_487 Treatment_1_RDK_488 Treatment_1_RDK_489 Treatment_1_RDK_490 Treatment_1_RDK_491 Treatment_1_RDK_492 Treatment_1_RDK_493 Treatment_1_RDK_494 Treatment_1_RDK_495 Treatment_1_RDK_496 Treatment_1_RDK_497 Treatment_1_RDK_498 Treatment_1_RDK_499 Treatment_1_RDK_500 Treatment_1_RDK_501 Treatment_1_RDK_502 Treatment_1_RDK_503 Treatment_1_RDK_504 Treatment_1_RDK_505 Treatment_1_RDK_506 Treatment_1_RDK_507 Treatment_1_RDK_508 Treatment_1_RDK_509 Treatment_1_RDK_510 Treatment_1_RDK_511 Treatment_1_RDK_512 Treatment_1_RDK_513 Treatment_1_RDK_514 Treatment_1_RDK_515 Treatment_1_RDK_516 Treatment_1_RDK_517 Treatment_1_RDK_518 Treatment_1_RDK_519 Treatment_1_RDK_520 Treatment_1_RDK_521 Treatment_1_RDK_522 Treatment_1_RDK_523 Treatment_1_RDK_524 Treatment_1_RDK_525 Treatment_1_RDK_526 Treatment_1_RDK_527 Treatment_1_RDK_528 Treatment_1_RDK_529 Treatment_1_RDK_530 Treatment_1_RDK_531 Treatment_1_RDK_532 Treatment_1_RDK_533 Treatment_1_RDK_534 Treatment_1_RDK_535 Treatment_1_RDK_536 Treatment_1_RDK_537 Treatment_1_RDK_538 Treatment_1_RDK_539 Treatment_1_RDK_540 Treatment_1_RDK_541 Treatment_1_RDK_542 Treatment_1_RDK_543 Treatment_1_RDK_544 Treatment_1_RDK_545 Treatment_1_RDK_546 Treatment_1_RDK_547 Treatment_1_RDK_548 Treatment_1_RDK_549 Treatment_1_RDK_550 Treatment_1_RDK_551 Treatment_1_RDK_552 Treatment_1_RDK_553 Treatment_1_RDK_554 Treatment_1_RDK_555 Treatment_1_RDK_556 Treatment_1_RDK_557 Treatment_1_RDK_558 Treatment_1_RDK_559 Treatment_1_RDK_560 Treatment_1_RDK_561 Treatment_1_RDK_562 Treatment_1_RDK_563 Treatment_1_RDK_564 Treatment_1_RDK_565 Treatment_1_RDK_566 Treatment_1_RDK_567 Treatment_1_RDK_568 Treatment_1_RDK_569 Treatment_1_RDK_570 Treatment_1_RDK_571 Treatment_1_RDK_572 Treatment_1_RDK_573 Treatment_1_RDK_574 Treatment_1_RDK_575 Treatment_1_RDK_576 Treatment_1_RDK_577 Treatment_1_RDK_578 Treatment_1_RDK_579 Treatment_1_RDK_580 Treatment_1_RDK_581 Treatment_1_RDK_582 Treatment_1_RDK_583 Treatment_1_RDK_584 Treatment_1_RDK_585 Treatment_1_RDK_586 Treatment_1_RDK_587 Treatment_1_RDK_588 Treatment_1_RDK_589 Treatment_1_RDK_590 Treatment_1_RDK_591 Treatment_1_RDK_592 Treatment_1_RDK_593 Treatment_1_RDK_594 Treatment_1_RDK_595 Treatment_1_RDK_596 Treatment_1_RDK_597 Treatment_1_RDK_598 Treatment_1_RDK_599 Treatment_1_RDK_600 Treatment_1_RDK_601 Treatment_1_RDK_602 Treatment_1_RDK_603 Treatment_1_RDK_604 Treatment_1_RDK_605 Treatment_1_RDK_606 Treatment_1_RDK_607 Treatment_1_RDK_608 Treatment_1_RDK_609 Treatment_1_RDK_610 Treatment_1_RDK_611 Treatment_1_RDK_612 Treatment_1_RDK_613 Treatment_1_RDK_614 Treatment_1_RDK_615 Treatment_1_RDK_616 Treatment_1_RDK_617 Treatment_1_RDK_618 Treatment_1_RDK_619 Treatment_1_RDK_620 Treatment_1_RDK_621 Treatment_1_RDK_622 Treatment_1_RDK_623 Treatment_1_RDK_624 Treatment_1_RDK_625 Treatment_1_RDK_626 Treatment_1_RDK_627 Treatment_1_RDK_628 Treatment_1_RDK_629 Treatment_1_RDK_630 Treatment_1_RDK_631 Treatment_1_RDK_632 Treatment_1_RDK_633 Treatment_1_RDK_634 Treatment_1_RDK_635 Treatment_1_RDK_636 Treatment_1_RDK_637 Treatment_1_RDK_638 Treatment_1_RDK_639 Treatment_1_RDK_640 Treatment_1_RDK_641 Treatment_1_RDK_642 Treatment_1_RDK_643 Treatment_1_RDK_644 Treatment_1_RDK_645 Treatment_1_RDK_646 Treatment_1_RDK_647 Treatment_1_RDK_648 Treatment_1_RDK_649 Treatment_1_RDK_650 Treatment_1_RDK_651 Treatment_1_RDK_652 Treatment_1_RDK_653 Treatment_1_RDK_654 Treatment_1_RDK_655 Treatment_1_RDK_656 Treatment_1_RDK_657 Treatment_1_RDK_658 Treatment_1_RDK_659 Treatment_1_RDK_660 Treatment_1_RDK_661 Treatment_1_RDK_662 Treatment_1_RDK_663 Treatment_1_RDK_664 Treatment_1_RDK_665 Treatment_1_RDK_666 Treatment_1_RDK_667 Treatment_1_RDK_668 Treatment_1_RDK_669 Treatment_1_RDK_670 Treatment_1_RDK_671 Treatment_1_RDK_672 Treatment_1_RDK_673 Treatment_1_RDK_674 Treatment_1_RDK_675 Treatment_1_RDK_676 Treatment_1_RDK_677 Treatment_1_RDK_678 Treatment_1_RDK_679 Treatment_1_RDK_680 Treatment_1_RDK_681 Treatment_1_RDK_682 Treatment_1_RDK_683 Treatment_1_RDK_684 Treatment_1_RDK_685 Treatment_1_RDK_686 Treatment_1_RDK_687 Treatment_1_RDK_688 Treatment_1_RDK_689 Treatment_1_RDK_690 Treatment_1_RDK_691 Treatment_1_RDK_692 Treatment_1_RDK_693 Treatment_1_RDK_694 Treatment_1_RDK_695 Treatment_1_RDK_696 Treatment_1_RDK_697 Treatment_1_RDK_698 Treatment_1_RDK_699 Treatment_1_RDK_700 Treatment_1_RDK_701 Treatment_1_RDK_702 Treatment_1_RDK_703 Treatment_1_RDK_704 Treatment_1_RDK_705 Treatment_1_RDK_706 Treatment_1_RDK_707 Treatment_1_RDK_708 Treatment_1_RDK_709 Treatment_1_RDK_710 Treatment_1_RDK_711 Treatment_1_RDK_712 Treatment_1_RDK_713 Treatment_1_RDK_714 Treatment_1_RDK_715 Treatment_1_RDK_716 Treatment_1_RDK_717 Treatment_1_RDK_718 Treatment_1_RDK_719 Treatment_1_RDK_720 Treatment_1_RDK_721 Treatment_1_RDK_722 Treatment_1_RDK_723 Treatment_1_RDK_724 Treatment_1_RDK_725 Treatment_1_RDK_726 Treatment_1_RDK_727 Treatment_1_RDK_728 Treatment_1_RDK_729 Treatment_1_RDK_730 Treatment_1_RDK_731 Treatment_1_RDK_732 Treatment_1_RDK_733 Treatment_1_RDK_734 Treatment_1_RDK_735 Treatment_1_RDK_736 Treatment_1_RDK_737 Treatment_1_RDK_738 Treatment_1_RDK_739 Treatment_1_RDK_740 Treatment_1_RDK_741 Treatment_1_RDK_742 Treatment_1_RDK_743 Treatment_1_RDK_744 Treatment_1_RDK_745 Treatment_1_RDK_746 Treatment_1_RDK_747 Treatment_1_RDK_748 Treatment_1_RDK_749 Treatment_1_RDK_750 Treatment_1_RDK_751 Treatment_1_RDK_752 Treatment_1_RDK_753 Treatment_1_RDK_754 Treatment_1_RDK_755 Treatment_1_RDK_756 Treatment_1_RDK_757 Treatment_1_RDK_758 Treatment_1_RDK_759 Treatment_1_RDK_760 Treatment_1_RDK_761 Treatment_1_RDK_762 Treatment_1_RDK_763 Treatment_1_RDK_764 Treatment_1_RDK_765 Treatment_1_RDK_766 Treatment_1_RDK_767 Treatment_1_RDK_768 Treatment_1_RDK_769 Treatment_1_RDK_770 Treatment_1_RDK_771 Treatment_1_RDK_772 Treatment_1_RDK_773 Treatment_1_RDK_774 Treatment_1_RDK_775 Treatment_1_RDK_776 Treatment_1_RDK_777 Treatment_1_RDK_778 Treatment_1_RDK_779 Treatment_1_RDK_780 Treatment_1_RDK_781 Treatment_1_RDK_782 Treatment_1_RDK_783 Treatment_1_RDK_784 Treatment_1_RDK_785 Treatment_1_RDK_786 Treatment_1_RDK_787 Treatment_1_RDK_788 Treatment_1_RDK_789 Treatment_1_RDK_790 Treatment_1_RDK_791 Treatment_1_RDK_792 Treatment_1_RDK_793 Treatment_1_RDK_794 Treatment_1_RDK_795 Treatment_1_RDK_796 Treatment_1_RDK_797 Treatment_1_RDK_798 Treatment_1_RDK_799 Treatment_1_RDK_800 Treatment_1_RDK_801 Treatment_1_RDK_802 Treatment_1_RDK_803 Treatment_1_RDK_804 Treatment_1_RDK_805 Treatment_1_RDK_806 Treatment_1_RDK_807 Treatment_1_RDK_808 Treatment_1_RDK_809 Treatment_1_RDK_810 Treatment_1_RDK_811 Treatment_1_RDK_812 Treatment_1_RDK_813 Treatment_1_RDK_814 Treatment_1_RDK_815 Treatment_1_RDK_816 Treatment_1_RDK_817 Treatment_1_RDK_818 Treatment_1_RDK_819 Treatment_1_RDK_820 Treatment_1_RDK_821 Treatment_1_RDK_822 Treatment_1_RDK_823 Treatment_1_RDK_824 Treatment_1_RDK_825 Treatment_1_RDK_826 Treatment_1_RDK_827 Treatment_1_RDK_828 Treatment_1_RDK_829 Treatment_1_RDK_830 Treatment_1_RDK_831 Treatment_1_RDK_832 Treatment_1_RDK_833 Treatment_1_RDK_834 Treatment_1_RDK_835 Treatment_1_RDK_836 Treatment_1_RDK_837 Treatment_1_RDK_838 Treatment_1_RDK_839 Treatment_1_RDK_840 Treatment_1_RDK_841 Treatment_1_RDK_842 Treatment_1_RDK_843 Treatment_1_RDK_844 Treatment_1_RDK_845 Treatment_1_RDK_846 Treatment_1_RDK_847 Treatment_1_RDK_848 Treatment_1_RDK_849 Treatment_1_RDK_850 Treatment_1_RDK_851 Treatment_1_RDK_852 Treatment_1_RDK_853 Treatment_1_RDK_854 Treatment_1_RDK_855 Treatment_1_RDK_856 Treatment_1_RDK_857 Treatment_1_RDK_858 Treatment_1_RDK_859 Treatment_1_RDK_860 Treatment_1_RDK_861 Treatment_1_RDK_862 Treatment_1_RDK_863 Treatment_1_RDK_864 Treatment_1_RDK_865 Treatment_1_RDK_866 Treatment_1_RDK_867 Treatment_1_RDK_868 Treatment_1_RDK_869 Treatment_1_RDK_870 Treatment_1_RDK_871 Treatment_1_RDK_872 Treatment_1_RDK_873 Treatment_1_RDK_874 Treatment_1_RDK_875 Treatment_1_RDK_876 Treatment_1_RDK_877 Treatment_1_RDK_878 Treatment_1_RDK_879 Treatment_1_RDK_880 Treatment_1_RDK_881 Treatment_1_RDK_882 Treatment_1_RDK_883 Treatment_1_RDK_884 Treatment_1_RDK_885 Treatment_1_RDK_886 Treatment_1_RDK_887 Treatment_1_RDK_888 Treatment_1_RDK_889 Treatment_1_RDK_890 Treatment_1_RDK_891 Treatment_1_RDK_892 Treatment_1_RDK_893 Treatment_1_RDK_894 Treatment_1_RDK_895 Treatment_1_RDK_896 Treatment_1_RDK_897 Treatment_1_RDK_898 Treatment_1_RDK_899 Treatment_1_RDK_900 Treatment_1_RDK_901 Treatment_1_RDK_902 Treatment_1_RDK_903 Treatment_1_RDK_904 Treatment_1_RDK_905 Treatment_1_RDK_906 Treatment_1_RDK_907 Treatment_1_RDK_908 Treatment_1_RDK_909 Treatment_1_RDK_910 Treatment_1_RDK_911 Treatment_1_RDK_912 Treatment_1_RDK_913 Treatment_1_RDK_914 Treatment_1_RDK_915 Treatment_1_RDK_916 Treatment_1_RDK_917 Treatment_1_RDK_918 Treatment_1_RDK_919 Treatment_1_RDK_920 Treatment_1_RDK_921 Treatment_1_RDK_922 Treatment_1_RDK_923 Treatment_1_RDK_924 Treatment_1_RDK_925 Treatment_1_RDK_926 Treatment_1_RDK_927 Treatment_1_RDK_928 Treatment_1_RDK_929 Treatment_1_RDK_930 Treatment_1_RDK_931 Treatment_1_RDK_932 Treatment_1_RDK_933 Treatment_1_RDK_934 Treatment_1_RDK_935 Treatment_1_RDK_936 Treatment_1_RDK_937 Treatment_1_RDK_938 Treatment_1_RDK_939 Treatment_1_RDK_940 Treatment_1_RDK_941 Treatment_1_RDK_942 Treatment_1_RDK_943 Treatment_1_RDK_944 Treatment_1_RDK_945 Treatment_1_RDK_946 Treatment_1_RDK_947 Treatment_1_RDK_948 Treatment_1_RDK_949 Treatment_1_RDK_950 Treatment_1_RDK_951 Treatment_1_RDK_952 Treatment_1_RDK_953 Treatment_1_RDK_954 Treatment_1_RDK_955 Treatment_1_RDK_956 Treatment_1_RDK_957 Treatment_1_RDK_958 Treatment_1_RDK_959 Treatment_1_RDK_960 Treatment_1_RDK_961 Treatment_1_RDK_962 Treatment_1_RDK_963 Treatment_1_RDK_964 Treatment_1_RDK_965 Treatment_1_RDK_966 Treatment_1_RDK_967 Treatment_1_RDK_968 Treatment_1_RDK_969 Treatment_1_RDK_970 Treatment_1_RDK_971 Treatment_1_RDK_972 Treatment_1_RDK_973 Treatment_1_RDK_974 Treatment_1_RDK_975 Treatment_1_RDK_976 Treatment_1_RDK_977 Treatment_1_RDK_978 Treatment_1_RDK_979 Treatment_1_RDK_980 Treatment_1_RDK_981 Treatment_1_RDK_982 Treatment_1_RDK_983 Treatment_1_RDK_984 Treatment_1_RDK_985 Treatment_1_RDK_986 Treatment_1_RDK_987 Treatment_1_RDK_988 Treatment_1_RDK_989 Treatment_1_RDK_990 Treatment_1_RDK_991 Treatment_1_RDK_992 Treatment_1_RDK_993 Treatment_1_RDK_994 Treatment_1_RDK_995 Treatment_1_RDK_996 Treatment_1_RDK_997 Treatment_1_RDK_998 Treatment_1_RDK_999 Treatment_1_RDK_1000 Treatment_1_RDK_1001 Treatment_1_RDK_1002 Treatment_1_RDK_1003 Treatment_1_RDK_1004 Treatment_1_RDK_1005 Treatment_1_RDK_1006 Treatment_1_RDK_1007 Treatment_1_RDK_1008 Treatment_1_RDK_1009 Treatment_1_RDK_1010 Treatment_1_RDK_1011 Treatment_1_RDK_1012 Treatment_1_RDK_1013 Treatment_1_RDK_1014 Treatment_1_RDK_1015 Treatment_1_RDK_1016 Treatment_1_RDK_1017 Treatment_1_RDK_1018 Treatment_1_RDK_1019 Treatment_1_RDK_1020 Treatment_1_RDK_1021 Treatment_1_RDK_1022 Treatment_1_RDK_1023 Treatment_1_RDK_1024 Treatment_1_RDK_1025 Treatment_1_RDK_1026 Treatment_1_RDK_1027 Treatment_1_RDK_1028 Treatment_1_RDK_1029 Treatment_1_RDK_1030 Treatment_1_RDK_1031 Treatment_1_RDK_1032 Treatment_1_RDK_1033 Treatment_1_RDK_1034 Treatment_1_RDK_1035 Treatment_1_RDK_1036 Treatment_1_RDK_1037 Treatment_1_RDK_1038 Treatment_1_RDK_1039 Treatment_1_RDK_1040 Treatment_1_RDK_1041 Treatment_1_RDK_1042 Treatment_1_RDK_1043 Treatment_1_RDK_1044 Treatment_1_RDK_1045 Treatment_1_RDK_1046 Treatment_1_RDK_1047 Treatment_1_RDK_1048 Treatment_1_RDK_1049 Treatment_1_RDK_1050 Treatment_1_RDK_1051 Treatment_1_RDK_1052 Treatment_1_RDK_1053 Treatment_1_RDK_1054 Treatment_1_RDK_1055 Treatment_1_RDK_1056 Treatment_1_RDK_1057 Treatment_1_RDK_1058 Treatment_1_RDK_1059 Treatment_1_RDK_1060 Treatment_1_RDK_1061 Treatment_1_RDK_1062 Treatment_1_RDK_1063 Treatment_1_RDK_1064 Treatment_1_RDK_1065 Treatment_1_RDK_1066 Treatment_1_RDK_1067 Treatment_1_RDK_1068 Treatment_1_RDK_1069 Treatment_1_RDK_1070 Treatment_1_RDK_1071 Treatment_1_RDK_1072 Treatment_1_RDK_1073 Treatment_1_RDK_1074 Treatment_1_RDK_1075 Treatment_1_RDK_1076 Treatment_1_RDK_1077 Treatment_1_RDK_1078 Treatment_1_RDK_1079 Treatment_1_RDK_1080 Treatment_1_RDK_1081 Treatment_1_RDK_1082 Treatment_1_RDK_1083 Treatment_1_RDK_1084 Treatment_1_RDK_1085 Treatment_1_RDK_1086 Treatment_1_RDK_1087 Treatment_1_RDK_1088 Treatment_1_RDK_1089 Treatment_1_RDK_1090 Treatment_1_RDK_1091 Treatment_1_RDK_1092 Treatment_1_RDK_1093 Treatment_1_RDK_1094 Treatment_1_RDK_1095 Treatment_1_RDK_1096 Treatment_1_RDK_1097 Treatment_1_RDK_1098 Treatment_1_RDK_1099 Treatment_1_RDK_1100 Treatment_1_RDK_1101 Treatment_1_RDK_1102 Treatment_1_RDK_1103 Treatment_1_RDK_1104 Treatment_1_RDK_1105 Treatment_1_RDK_1106 Treatment_1_RDK_1107 Treatment_1_RDK_1108 Treatment_1_RDK_1109 Treatment_1_RDK_1110 Treatment_1_RDK_1111 Treatment_1_RDK_1112 Treatment_1_RDK_1113 Treatment_1_RDK_1114 Treatment_1_RDK_1115 Treatment_1_RDK_1116 Treatment_1_RDK_1117 Treatment_1_RDK_1118 Treatment_1_RDK_1119 Treatment_1_RDK_1120 Treatment_1_RDK_1121 Treatment_1_RDK_1122 Treatment_1_RDK_1123 Treatment_1_RDK_1124 Treatment_1_RDK_1125 Treatment_1_RDK_1126 Treatment_1_RDK_1127 Treatment_1_RDK_1128 Treatment_1_RDK_1129 Treatment_1_RDK_1130 Treatment_1_RDK_1131 Treatment_1_RDK_1132 Treatment_1_RDK_1133 Treatment_1_RDK_1134 Treatment_1_RDK_1135 Treatment_1_RDK_1136 Treatment_1_RDK_1137 Treatment_1_RDK_1138 Treatment_1_RDK_1139 Treatment_1_RDK_1140 Treatment_1_RDK_1141 Treatment_1_RDK_1142 Treatment_1_RDK_1143 Treatment_1_RDK_1144 Treatment_1_RDK_1145 Treatment_1_RDK_1146 Treatment_1_RDK_1147 Treatment_1_RDK_1148 Treatment_1_RDK_1149 Treatment_1_RDK_1150 Treatment_1_RDK_1151 Treatment_1_RDK_1152 Treatment_1_RDK_1153 Treatment_1_RDK_1154 Treatment_1_RDK_1155 Treatment_1_RDK_1156 Treatment_1_RDK_1157 Treatment_1_RDK_1158 Treatment_1_RDK_1159 Treatment_1_RDK_1160 Treatment_1_RDK_1161 Treatment_1_RDK_1162 Treatment_1_RDK_1163 Treatment_1_RDK_1164 Treatment_1_RDK_1165 Treatment_1_RDK_1166 Treatment_1_RDK_1167 Treatment_1_RDK_1168 Treatment_1_RDK_1169 Treatment_1_RDK_1170 Treatment_1_RDK_1171 Treatment_1_RDK_1172 Treatment_1_RDK_1173 Treatment_1_RDK_1174 Treatment_1_RDK_1175 Treatment_1_RDK_1176 Treatment_1_RDK_1177 Treatment_1_RDK_1178 Treatment_1_RDK_1179 Treatment_1_RDK_1180 Treatment_1_RDK_1181 Treatment_1_RDK_1182 Treatment_1_RDK_1183 Treatment_1_RDK_1184 Treatment_1_RDK_1185 Treatment_1_RDK_1186 Treatment_1_RDK_1187 Treatment_1_RDK_1188 Treatment_1_RDK_1189 Treatment_1_RDK_1190 Treatment_1_RDK_1191 Treatment_1_RDK_1192 Treatment_1_RDK_1193 Treatment_1_RDK_1194 Treatment_1_RDK_1195 Treatment_1_RDK_1196 Treatment_1_RDK_1197 Treatment_1_RDK_1198 Treatment_1_RDK_1199 Treatment_1_RDK_1200 Treatment_1_RDK_1201 Treatment_1_RDK_1202 Treatment_1_RDK_1203 Treatment_1_RDK_1204 Treatment_1_RDK_1205 Treatment_1_RDK_1206 Treatment_1_RDK_1207 Treatment_1_RDK_1208 Treatment_1_RDK_1209 Treatment_1_RDK_1210 Treatment_1_RDK_1211 Treatment_1_RDK_1212 Treatment_1_RDK_1213 Treatment_1_RDK_1214 Treatment_1_RDK_1215 Treatment_1_RDK_1216 Treatment_1_RDK_1217 Treatment_1_RDK_1218 Treatment_1_RDK_1219 Treatment_1_RDK_1220 Treatment_1_RDK_1221 Treatment_1_RDK_1222 Treatment_1_RDK_1223 Treatment_1_RDK_1224 Treatment_1_RDK_1225 Treatment_1_RDK_1226 Treatment_1_RDK_1227 Treatment_1_RDK_1228 Treatment_1_RDK_1229 Treatment_1_RDK_1230 Treatment_1_RDK_1231 Treatment_1_RDK_1232 Treatment_1_RDK_1233 Treatment_1_RDK_1234 Treatment_1_RDK_1235 Treatment_1_RDK_1236 Treatment_1_RDK_1237 Treatment_1_RDK_1238 Treatment_1_RDK_1239 Treatment_1_RDK_1240 Treatment_1_RDK_1241 Treatment_1_RDK_1242 Treatment_1_RDK_1243 Treatment_1_RDK_1244 Treatment_1_RDK_1245 Treatment_1_RDK_1246 Treatment_1_RDK_1247 Treatment_1_RDK_1248 Treatment_1_RDK_1249 Treatment_1_RDK_1250 Treatment_1_RDK_1251 Treatment_1_RDK_1252 Treatment_1_RDK_1253 Treatment_1_RDK_1254 Treatment_1_RDK_1255 Treatment_1_RDK_1256 Treatment_1_RDK_1257 Treatment_1_RDK_1258 Treatment_1_RDK_1259 Treatment_1_RDK_1260 Treatment_1_RDK_1261 Treatment_1_RDK_1262 Treatment_1_RDK_1263 Treatment_1_RDK_1264 Treatment_1_RDK_1265 Treatment_1_RDK_1266 Treatment_1_RDK_1267 Treatment_1_RDK_1268 Treatment_1_RDK_1269 Treatment_1_RDK_1270 Treatment_1_RDK_1271 Treatment_1_RDK_1272 Treatment_1_RDK_1273 Treatment_1_RDK_1274 Treatment_1_RDK_1275 Treatment_1_RDK_1276 Treatment_1_RDK_1277 Treatment_1_RDK_1278 Treatment_1_RDK_1279 Treatment_1_RDK_1280 Treatment_1_RDK_1281 Treatment_1_RDK_1282 Treatment_1_RDK_1283 Treatment_1_RDK_1284 Treatment_1_RDK_1285 Treatment_1_RDK_1286 Treatment_1_RDK_1287 Treatment_1_RDK_1288 Treatment_1_RDK_1289 Treatment_1_RDK_1290 Treatment_1_RDK_1291 Treatment_1_RDK_1292 Treatment_1_RDK_1293 Treatment_1_RDK_1294 Treatment_1_RDK_1295 Treatment_1_RDK_1296 Treatment_1_RDK_1297 Treatment_1_RDK_1298 Treatment_1_RDK_1299 Treatment_1_RDK_1300 Treatment_1_RDK_1301 Treatment_1_RDK_1302 Treatment_1_RDK_1303 Treatment_1_RDK_1304 Treatment_1_RDK_1305 Treatment_1_RDK_1306 Treatment_1_RDK_1307 Treatment_1_RDK_1308 Treatment_1_RDK_1309 Treatment_1_RDK_1310 Treatment_1_RDK_1311 Treatment_1_RDK_1312 Treatment_1_RDK_1313 Treatment_1_RDK_1314 Treatment_1_RDK_1315 Treatment_1_RDK_1316 Treatment_1_RDK_1317 Treatment_1_RDK_1318 Treatment_1_RDK_1319 Treatment_1_RDK_1320 Treatment_1_RDK_1321 Treatment_1_RDK_1322 Treatment_1_RDK_1323 Treatment_1_RDK_1324 Treatment_1_RDK_1325 Treatment_1_RDK_1326 Treatment_1_RDK_1327 Treatment_1_RDK_1328 Treatment_1_RDK_1329 Treatment_1_RDK_1330 Treatment_1_RDK_1331 Treatment_1_RDK_1332 Treatment_1_RDK_1333 Treatment_1_RDK_1334 Treatment_1_RDK_1335 Treatment_1_RDK_1336 Treatment_1_RDK_1337 Treatment_1_RDK_1338 Treatment_1_RDK_1339 Treatment_1_RDK_1340 Treatment_1_RDK_1341 Treatment_1_RDK_1342 Treatment_1_RDK_1343 Treatment_1_RDK_1344 Treatment_1_RDK_1345 Treatment_1_RDK_1346 Treatment_1_RDK_1347 Treatment_1_RDK_1348 Treatment_1_RDK_1349 Treatment_1_RDK_1350 Treatment_1_RDK_1351 Treatment_1_RDK_1352 Treatment_1_RDK_1353 Treatment_1_RDK_1354 Treatment_1_RDK_1355 Treatment_1_RDK_1356 Treatment_1_RDK_1357 Treatment_1_RDK_1358 Treatment_1_RDK_1359 Treatment_1_RDK_1360 Treatment_1_RDK_1361 Treatment_1_RDK_1362 Treatment_1_RDK_1363 Treatment_1_RDK_1364 Treatment_1_RDK_1365 Treatment_1_RDK_1366 Treatment_1_RDK_1367 Treatment_1_RDK_1368 Treatment_1_RDK_1369 Treatment_1_RDK_1370 Treatment_1_RDK_1371 Treatment_1_RDK_1372 Treatment_1_RDK_1373 Treatment_1_RDK_1374 Treatment_1_RDK_1375 Treatment_1_RDK_1376 Treatment_1_RDK_1377 Treatment_1_RDK_1378 Treatment_1_RDK_1379 Treatment_1_RDK_1380 Treatment_1_RDK_1381 Treatment_1_RDK_1382 Treatment_1_RDK_1383 Treatment_1_RDK_1384 Treatment_1_RDK_1385 Treatment_1_RDK_1386 Treatment_1_RDK_1387 Treatment_1_RDK_1388 Treatment_1_RDK_1389 Treatment_1_RDK_1390 Treatment_1_RDK_1391 Treatment_1_RDK_1392 Treatment_1_RDK_1393 Treatment_1_RDK_1394 Treatment_1_RDK_1395 Treatment_1_RDK_1396 Treatment_1_RDK_1397 Treatment_1_RDK_1398 Treatment_1_RDK_1399 Treatment_1_RDK_1400 Treatment_1_RDK_1401 Treatment_1_RDK_1402 Treatment_1_RDK_1403 Treatment_1_RDK_1404 Treatment_1_RDK_1405 Treatment_1_RDK_1406 Treatment_1_RDK_1407 Treatment_1_RDK_1408 Treatment_1_RDK_1409 Treatment_1_RDK_1410 Treatment_1_RDK_1411 Treatment_1_RDK_1412 Treatment_1_RDK_1413 Treatment_1_RDK_1414 Treatment_1_RDK_1415 Treatment_1_RDK_1416 Treatment_1_RDK_1417 Treatment_1_RDK_1418 Treatment_1_RDK_1419 Treatment_1_RDK_1420 Treatment_1_RDK_1421 Treatment_1_RDK_1422 Treatment_1_RDK_1423 Treatment_1_RDK_1424 Treatment_1_RDK_1425 Treatment_1_RDK_1426 Treatment_1_RDK_1427 Treatment_1_RDK_1428 Treatment_1_RDK_1429 Treatment_1_RDK_1430 Treatment_1_RDK_1431 Treatment_1_RDK_1432 Treatment_1_RDK_1433 Treatment_1_RDK_1434 Treatment_1_RDK_1435 Treatment_1_RDK_1436 Treatment_1_RDK_1437 Treatment_1_RDK_1438 Treatment_1_RDK_1439 Treatment_1_RDK_1440 Treatment_1_RDK_1441 Treatment_1_RDK_1442 Treatment_1_RDK_1443 Treatment_1_RDK_1444 Treatment_1_RDK_1445 Treatment_1_RDK_1446 Treatment_1_RDK_1447 Treatment_1_RDK_1448 Treatment_1_RDK_1449 Treatment_1_RDK_1450 Treatment_1_RDK_1451 Treatment_1_RDK_1452 Treatment_1_RDK_1453 Treatment_1_RDK_1454 Treatment_1_RDK_1455 Treatment_1_RDK_1456 Treatment_1_RDK_1457 Treatment_1_RDK_1458 Treatment_1_RDK_1459 Treatment_1_RDK_1460 Treatment_1_RDK_1461 Treatment_1_RDK_1462 Treatment_1_RDK_1463 Treatment_1_RDK_1464 Treatment_1_RDK_1465 Treatment_1_RDK_1466 Treatment_1_RDK_1467 Treatment_1_RDK_1468 Treatment_1_RDK_1469 Treatment_1_RDK_1470 Treatment_1_RDK_1471 Treatment_1_RDK_1472 Treatment_1_RDK_1473 Treatment_1_RDK_1474 Treatment_1_RDK_1475 Treatment_1_RDK_1476 Treatment_1_RDK_1477 Treatment_1_RDK_1478 Treatment_1_RDK_1479 Treatment_1_RDK_1480 Treatment_1_RDK_1481 Treatment_1_RDK_1482 Treatment_1_RDK_1483 Treatment_1_RDK_1484 Treatment_1_RDK_1485 Treatment_1_RDK_1486 Treatment_1_RDK_1487 Treatment_1_RDK_1488 Treatment_1_RDK_1489 Treatment_1_RDK_1490 Treatment_1_RDK_1491 Treatment_1_RDK_1492 Treatment_1_RDK_1493 Treatment_1_RDK_1494 Treatment_1_RDK_1495 Treatment_1_RDK_1496 Treatment_1_RDK_1497 Treatment_1_RDK_1498 Treatment_1_RDK_1499 Treatment_1_RDK_1500 Treatment_1_RDK_1501 Treatment_1_RDK_1502 Treatment_1_RDK_1503 Treatment_1_RDK_1504 Treatment_1_RDK_1505 Treatment_1_RDK_1506 Treatment_1_RDK_1507 Treatment_1_RDK_1508 Treatment_1_RDK_1509 Treatment_1_RDK_1510 Treatment_1_RDK_1511 Treatment_1_RDK_1512 Treatment_1_RDK_1513 Treatment_1_RDK_1514 Treatment_1_RDK_1515 Treatment_1_RDK_1516 Treatment_1_RDK_1517 Treatment_1_RDK_1518 Treatment_1_RDK_1519 Treatment_1_RDK_1520 Treatment_1_RDK_1521 Treatment_1_RDK_1522 Treatment_1_RDK_1523 Treatment_1_RDK_1524 Treatment_1_RDK_1525 Treatment_1_RDK_1526 Treatment_1_RDK_1527 Treatment_1_RDK_1528 Treatment_1_RDK_1529 Treatment_1_RDK_1530 Treatment_1_RDK_1531 Treatment_1_RDK_1532 Treatment_1_RDK_1533 Treatment_1_RDK_1534 Treatment_1_RDK_1535 Treatment_1_RDK_1536 Treatment_1_RDK_1537 Treatment_1_RDK_1538 Treatment_1_RDK_1539 Treatment_1_RDK_1540 Treatment_1_RDK_1541 Treatment_1_RDK_1542 Treatment_1_RDK_1543 Treatment_1_RDK_1544 Treatment_1_RDK_1545 Treatment_1_RDK_1546 Treatment_1_RDK_1547 Treatment_1_RDK_1548 Treatment_1_RDK_1549 Treatment_1_RDK_1550 Treatment_1_RDK_1551 Treatment_1_RDK_1552 Treatment_1_RDK_1553 Treatment_1_RDK_1554 Treatment_1_RDK_1555 Treatment_1_RDK_1556 Treatment_1_RDK_1557 Treatment_1_RDK_1558 Treatment_1_RDK_1559 Treatment_1_RDK_1560 Treatment_1_RDK_1561 Treatment_1_RDK_1562 Treatment_1_RDK_1563 Treatment_1_RDK_1564 Treatment_1_RDK_1565 Treatment_1_RDK_1566 Treatment_1_RDK_1567 Treatment_1_RDK_1568 Treatment_1_RDK_1569 Treatment_1_RDK_1570 Treatment_1_RDK_1571 Treatment_1_RDK_1572 Treatment_1_RDK_1573 Treatment_1_RDK_1574 Treatment_1_RDK_1575 Treatment_1_RDK_1576 Treatment_1_RDK_1577 Treatment_1_RDK_1578 Treatment_1_RDK_1579 Treatment_1_RDK_1580 Treatment_1_RDK_1581 Treatment_1_RDK_1582 Treatment_1_RDK_1583 Treatment_1_RDK_1584 Treatment_1_RDK_1585 Treatment_1_RDK_1586 Treatment_1_RDK_1587 Treatment_1_RDK_1588 Treatment_1_RDK_1589 Treatment_1_RDK_1590 Treatment_1_RDK_1591 Treatment_1_RDK_1592 Treatment_1_RDK_1593 Treatment_1_RDK_1594 Treatment_1_RDK_1595 Treatment_1_RDK_1596 Treatment_1_RDK_1597 Treatment_1_RDK_1598 Treatment_1_RDK_1599 Treatment_1_RDK_1600 Treatment_1_RDK_1601 Treatment_1_RDK_1602 Treatment_1_RDK_1603 Treatment_1_RDK_1604 Treatment_1_RDK_1605 Treatment_1_RDK_1606 Treatment_1_RDK_1607 Treatment_1_RDK_1608 Treatment_1_RDK_1609 Treatment_1_RDK_1610 Treatment_1_RDK_1611 Treatment_1_RDK_1612 Treatment_1_RDK_1613 Treatment_1_RDK_1614 Treatment_1_RDK_1615 Treatment_1_RDK_1616 Treatment_1_RDK_1617 Treatment_1_RDK_1618 Treatment_1_RDK_1619 Treatment_1_RDK_1620 Treatment_1_RDK_1621 Treatment_1_RDK_1622 Treatment_1_RDK_1623 Treatment_1_RDK_1624 Treatment_1_RDK_1625 Treatment_1_RDK_1626 Treatment_1_RDK_1627 Treatment_1_RDK_1628 Treatment_1_RDK_1629 Treatment_1_RDK_1630 Treatment_1_RDK_1631 Treatment_1_RDK_1632 Treatment_1_RDK_1633 Treatment_1_RDK_1634 Treatment_1_RDK_1635 Treatment_1_RDK_1636 Treatment_1_RDK_1637 Treatment_1_RDK_1638 Treatment_1_RDK_1639 Treatment_1_RDK_1640 Treatment_1_RDK_1641 Treatment_1_RDK_1642 Treatment_1_RDK_1643 Treatment_1_RDK_1644 Treatment_1_RDK_1645 Treatment_1_RDK_1646 Treatment_1_RDK_1647 Treatment_1_RDK_1648 Treatment_1_RDK_1649 Treatment_1_RDK_1650 Treatment_1_RDK_1651 Treatment_1_RDK_1652 Treatment_1_RDK_1653 Treatment_1_RDK_1654 Treatment_1_RDK_1655 Treatment_1_RDK_1656 Treatment_1_RDK_1657 Treatment_1_RDK_1658 Treatment_1_RDK_1659 Treatment_1_RDK_1660 Treatment_1_RDK_1661 Treatment_1_RDK_1662 Treatment_1_RDK_1663 Treatment_1_RDK_1664 Treatment_1_RDK_1665 Treatment_1_RDK_1666 Treatment_1_RDK_1667 Treatment_1_RDK_1668 Treatment_1_RDK_1669 Treatment_1_RDK_1670 Treatment_1_RDK_1671 Treatment_1_RDK_1672 Treatment_1_RDK_1673 Treatment_1_RDK_1674 Treatment_1_RDK_1675 Treatment_1_RDK_1676 Treatment_1_RDK_1677 Treatment_1_RDK_1678 Treatment_1_RDK_1679 Treatment_1_RDK_1680 Treatment_1_RDK_1681 Treatment_1_RDK_1682 Treatment_1_RDK_1683 Treatment_1_RDK_1684 Treatment_1_RDK_1685 Treatment_1_RDK_1686 Treatment_1_RDK_1687 Treatment_1_RDK_1688 Treatment_1_RDK_1689 Treatment_1_RDK_1690 Treatment_1_RDK_1691 Treatment_1_RDK_1692 Treatment_1_RDK_1693 Treatment_1_RDK_1694 Treatment_1_RDK_1695 Treatment_1_RDK_1696 Treatment_1_RDK_1697 Treatment_1_RDK_1698 Treatment_1_RDK_1699 Treatment_1_RDK_1700 Treatment_1_RDK_1701 Treatment_1_RDK_1702 Treatment_1_RDK_1703 Treatment_1_RDK_1704 Treatment_1_RDK_1705 Treatment_1_RDK_1706 Treatment_1_RDK_1707 Treatment_1_RDK_1708 Treatment_1_RDK_1709 Treatment_1_RDK_1710 Treatment_1_RDK_1711 Treatment_1_RDK_1712 Treatment_1_RDK_1713 Treatment_1_RDK_1714 Treatment_1_RDK_1715 Treatment_1_RDK_1716 Treatment_1_RDK_1717 Treatment_1_RDK_1718 Treatment_1_RDK_1719 Treatment_1_RDK_1720 Treatment_1_RDK_1721 Treatment_1_RDK_1722 Treatment_1_RDK_1723 Treatment_1_RDK_1724 Treatment_1_RDK_1725 Treatment_1_RDK_1726 Treatment_1_RDK_1727 Treatment_1_RDK_1728 Treatment_1_RDK_1729 Treatment_1_RDK_1730 Treatment_1_RDK_1731 Treatment_1_RDK_1732 Treatment_1_RDK_1733 Treatment_1_RDK_1734 Treatment_1_RDK_1735 Treatment_1_RDK_1736 Treatment_1_RDK_1737 Treatment_1_RDK_1738 Treatment_1_RDK_1739 Treatment_1_RDK_1740 Treatment_1_RDK_1741 Treatment_1_RDK_1742 Treatment_1_RDK_1743 Treatment_1_RDK_1744 Treatment_1_RDK_1745 Treatment_1_RDK_1746 Treatment_1_RDK_1747 Treatment_1_RDK_1748 Treatment_1_RDK_1749 Treatment_1_RDK_1750 Treatment_1_RDK_1751 Treatment_1_RDK_1752 Treatment_1_RDK_1753 Treatment_1_RDK_1754 Treatment_1_RDK_1755 Treatment_1_RDK_1756 Treatment_1_RDK_1757 Treatment_1_RDK_1758 Treatment_1_RDK_1759 Treatment_1_RDK_1760 Treatment_1_RDK_1761 Treatment_1_RDK_1762 Treatment_1_RDK_1763 Treatment_1_RDK_1764 Treatment_1_RDK_1765 Treatment_1_RDK_1766 Treatment_1_RDK_1767 Treatment_1_RDK_1768 Treatment_1_RDK_1769 Treatment_1_RDK_1770 Treatment_1_RDK_1771 Treatment_1_RDK_1772 Treatment_1_RDK_1773 Treatment_1_RDK_1774 Treatment_1_RDK_1775 Treatment_1_RDK_1776 Treatment_1_RDK_1777 Treatment_1_RDK_1778 Treatment_1_RDK_1779 Treatment_1_RDK_1780 Treatment_1_RDK_1781 Treatment_1_RDK_1782 Treatment_1_RDK_1783 Treatment_1_RDK_1784 Treatment_1_RDK_1785 Treatment_1_RDK_1786 Treatment_1_RDK_1787 Treatment_1_RDK_1788 Treatment_1_RDK_1789 Treatment_1_RDK_1790 Treatment_1_RDK_1791 Treatment_1_RDK_1792 Treatment_1_RDK_1793 Treatment_1_RDK_1794 Treatment_1_RDK_1795 Treatment_1_RDK_1796 Treatment_1_RDK_1797 Treatment_1_RDK_1798 Treatment_1_RDK_1799 Treatment_1_RDK_1800 Treatment_1_RDK_1801 Treatment_1_RDK_1802 Treatment_1_RDK_1803 Treatment_1_RDK_1804 Treatment_1_RDK_1805 Treatment_1_RDK_1806 Treatment_1_RDK_1807 Treatment_1_RDK_1808 Treatment_1_RDK_1809 Treatment_1_RDK_1810 Treatment_1_RDK_1811 Treatment_1_RDK_1812 Treatment_1_RDK_1813 Treatment_1_RDK_1814 Treatment_1_RDK_1815 Treatment_1_RDK_1816 Treatment_1_RDK_1817 Treatment_1_RDK_1818 Treatment_1_RDK_1819 Treatment_1_RDK_1820 Treatment_1_RDK_1821 Treatment_1_RDK_1822 Treatment_1_RDK_1823 Treatment_1_RDK_1824 Treatment_1_RDK_1825 Treatment_1_RDK_1826 Treatment_1_RDK_1827 Treatment_1_RDK_1828 Treatment_1_RDK_1829 Treatment_1_RDK_1830 Treatment_1_RDK_1831 Treatment_1_RDK_1832 Treatment_1_RDK_1833 Treatment_1_RDK_1834 Treatment_1_RDK_1835 Treatment_1_RDK_1836 Treatment_1_RDK_1837 Treatment_1_RDK_1838 Treatment_1_RDK_1839 Treatment_1_RDK_1840 Treatment_1_RDK_1841 Treatment_1_RDK_1842 Treatment_1_RDK_1843 Treatment_1_RDK_1844 Treatment_1_RDK_1845 Treatment_1_RDK_1846 Treatment_1_RDK_1847 Treatment_1_RDK_1848 Treatment_1_RDK_1849 Treatment_1_RDK_1850 Treatment_1_RDK_1851 Treatment_1_RDK_1852 Treatment_1_RDK_1853 Treatment_1_RDK_1854 Treatment_1_RDK_1855 Treatment_1_RDK_1856 Treatment_1_RDK_1857 Treatment_1_RDK_1858 Treatment_1_RDK_1859 Treatment_1_RDK_1860 Treatment_1_RDK_1861 Treatment_1_RDK_1862 Treatment_1_RDK_1863 Treatment_1_RDK_1864 Treatment_1_RDK_1865 Treatment_1_RDK_1866 Treatment_1_RDK_1867 Treatment_1_RDK_1868 Treatment_1_RDK_1869 Treatment_1_RDK_1870 Treatment_1_RDK_1871 Treatment_1_RDK_1872 Treatment_1_RDK_1873 Treatment_1_RDK_1874 Treatment_1_RDK_1875 Treatment_1_RDK_1876 Treatment_1_RDK_1877 Treatment_1_RDK_1878 Treatment_1_RDK_1879 Treatment_1_RDK_1880 Treatment_1_RDK_1881 Treatment_1_RDK_1882 Treatment_1_RDK_1883 Treatment_1_RDK_1884 Treatment_1_RDK_1885 Treatment_1_RDK_1886 Treatment_1_RDK_1887 Treatment_1_RDK_1888 Treatment_1_RDK_1889 Treatment_1_RDK_1890 Treatment_1_RDK_1891 Treatment_1_RDK_1892 Treatment_1_RDK_1893 Treatment_1_RDK_1894 Treatment_1_RDK_1895 Treatment_1_RDK_1896 Treatment_1_RDK_1897 Treatment_1_RDK_1898 Treatment_1_RDK_1899 Treatment_1_RDK_1900 Treatment_1_RDK_1901 Treatment_1_RDK_1902 Treatment_1_RDK_1903 Treatment_1_RDK_1904 Treatment_1_RDK_1905 Treatment_1_RDK_1906 Treatment_1_RDK_1907 Treatment_1_RDK_1908 Treatment_1_RDK_1909 Treatment_1_RDK_1910 Treatment_1_RDK_1911 Treatment_1_RDK_1912 Treatment_1_RDK_1913 Treatment_1_RDK_1914 Treatment_1_RDK_1915 Treatment_1_RDK_1916 Treatment_1_RDK_1917 Treatment_1_RDK_1918 Treatment_1_RDK_1919 Treatment_1_RDK_1920 Treatment_1_RDK_1921 Treatment_1_RDK_1922 Treatment_1_RDK_1923 Treatment_1_RDK_1924 Treatment_1_RDK_1925 Treatment_1_RDK_1926 Treatment_1_RDK_1927 Treatment_1_RDK_1928 Treatment_1_RDK_1929 Treatment_1_RDK_1930 Treatment_1_RDK_1931 Treatment_1_RDK_1932 Treatment_1_RDK_1933 Treatment_1_RDK_1934 Treatment_1_RDK_1935 Treatment_1_RDK_1936 Treatment_1_RDK_1937 Treatment_1_RDK_1938 Treatment_1_RDK_1939 Treatment_1_RDK_1940 Treatment_1_RDK_1941 Treatment_1_RDK_1942 Treatment_1_RDK_1943 Treatment_1_RDK_1944 Treatment_1_RDK_1945 Treatment_1_RDK_1946 Treatment_1_RDK_1947 Treatment_1_RDK_1948 Treatment_1_RDK_1949 Treatment_1_RDK_1950 Treatment_1_RDK_1951 Treatment_1_RDK_1952 Treatment_1_RDK_1953 Treatment_1_RDK_1954 Treatment_1_RDK_1955 Treatment_1_RDK_1956 Treatment_1_RDK_1957 Treatment_1_RDK_1958 Treatment_1_RDK_1959 Treatment_1_RDK_1960 Treatment_1_RDK_1961 Treatment_1_RDK_1962 Treatment_1_RDK_1963 Treatment_1_RDK_1964 Treatment_1_RDK_1965 Treatment_1_RDK_1966 Treatment_1_RDK_1967 Treatment_1_RDK_1968 Treatment_1_RDK_1969 Treatment_1_RDK_1970 Treatment_1_RDK_1971 Treatment_1_RDK_1972 Treatment_1_RDK_1973 Treatment_1_RDK_1974 Treatment_1_RDK_1975 Treatment_1_RDK_1976 Treatment_1_RDK_1977 Treatment_1_RDK_1978 Treatment_1_RDK_1979 Treatment_1_RDK_1980 Treatment_1_RDK_1981 Treatment_1_RDK_1982 Treatment_1_RDK_1983 Treatment_1_RDK_1984 Treatment_1_RDK_1985 Treatment_1_RDK_1986 Treatment_1_RDK_1987 Treatment_1_RDK_1988 Treatment_1_RDK_1989 Treatment_1_RDK_1990 Treatment_1_RDK_1991 Treatment_1_RDK_1992 Treatment_1_RDK_1993 Treatment_1_RDK_1994 Treatment_1_RDK_1995 Treatment_1_RDK_1996 Treatment_1_RDK_1997 Treatment_1_RDK_1998 Treatment_1_RDK_1999 Treatment_1_RDK_2000 Treatment_1_RDK_2001 Treatment_1_RDK_2002 Treatment_1_RDK_2003 Treatment_1_RDK_2004 Treatment_1_RDK_2005 Treatment_1_RDK_2006 Treatment_1_RDK_2007 Treatment_1_RDK_2008 Treatment_1_RDK_2009 Treatment_1_RDK_2010 Treatment_1_RDK_2011 Treatment_1_RDK_2012 Treatment_1_RDK_2013 Treatment_1_RDK_2014 Treatment_1_RDK_2015 Treatment_1_RDK_2016 Treatment_1_RDK_2017 Treatment_1_RDK_2018 Treatment_1_RDK_2019 Treatment_1_RDK_2020 Treatment_1_RDK_2021 Treatment_1_RDK_2022 Treatment_1_RDK_2023 Treatment_1_RDK_2024 Treatment_1_RDK_2025 Treatment_1_RDK_2026 Treatment_1_RDK_2027 Treatment_1_RDK_2028 Treatment_1_RDK_2029 Treatment_1_RDK_2030 Treatment_1_RDK_2031 Treatment_1_RDK_2032 Treatment_1_RDK_2033 Treatment_1_RDK_2034 Treatment_1_RDK_2035 Treatment_1_RDK_2036 Treatment_1_RDK_2037 Treatment_1_RDK_2038 Treatment_1_RDK_2039 Treatment_1_RDK_2040 Treatment_1_RDK_2041 Treatment_1_RDK_2042 Treatment_1_RDK_2043 Treatment_1_RDK_2044 Treatment_1_RDK_2045 Treatment_1_RDK_2046 Treatment_1_RDK_2047 Treatment_1_RDK_2048 Treatment_2_MACCS_1 Treatment_2_MACCS_2 Treatment_2_MACCS_3 Treatment_2_MACCS_4 Treatment_2_MACCS_5 Treatment_2_MACCS_6 Treatment_2_MACCS_7 Treatment_2_MACCS_8 Treatment_2_MACCS_9 Treatment_2_MACCS_10 Treatment_2_MACCS_11 Treatment_2_MACCS_12 Treatment_2_MACCS_13 Treatment_2_MACCS_14 Treatment_2_MACCS_15 Treatment_2_MACCS_16 Treatment_2_MACCS_17 Treatment_2_MACCS_18 Treatment_2_MACCS_19 Treatment_2_MACCS_20 Treatment_2_MACCS_21 Treatment_2_MACCS_22 Treatment_2_MACCS_23 Treatment_2_MACCS_24 Treatment_2_MACCS_25 Treatment_2_MACCS_26 Treatment_2_MACCS_27 Treatment_2_MACCS_28 Treatment_2_MACCS_29 Treatment_2_MACCS_30 Treatment_2_MACCS_31 Treatment_2_MACCS_32 Treatment_2_MACCS_33 Treatment_2_MACCS_34 Treatment_2_MACCS_35 Treatment_2_MACCS_36 Treatment_2_MACCS_37 Treatment_2_MACCS_38 Treatment_2_MACCS_39 Treatment_2_MACCS_40 Treatment_2_MACCS_41 Treatment_2_MACCS_42 Treatment_2_MACCS_43 Treatment_2_MACCS_44 Treatment_2_MACCS_45 Treatment_2_MACCS_46 Treatment_2_MACCS_47 Treatment_2_MACCS_48 Treatment_2_MACCS_49 Treatment_2_MACCS_50 Treatment_2_MACCS_51 Treatment_2_MACCS_52 Treatment_2_MACCS_53 Treatment_2_MACCS_54 Treatment_2_MACCS_55 Treatment_2_MACCS_56 Treatment_2_MACCS_57 Treatment_2_MACCS_58 Treatment_2_MACCS_59 Treatment_2_MACCS_60 Treatment_2_MACCS_61 Treatment_2_MACCS_62 Treatment_2_MACCS_63 Treatment_2_MACCS_64 Treatment_2_MACCS_65 Treatment_2_MACCS_66 Treatment_2_MACCS_67 Treatment_2_MACCS_68 Treatment_2_MACCS_69 Treatment_2_MACCS_70 Treatment_2_MACCS_71 Treatment_2_MACCS_72 Treatment_2_MACCS_73 Treatment_2_MACCS_74 Treatment_2_MACCS_75 Treatment_2_MACCS_76 Treatment_2_MACCS_77 Treatment_2_MACCS_78 Treatment_2_MACCS_79 Treatment_2_MACCS_80 Treatment_2_MACCS_81 Treatment_2_MACCS_82 Treatment_2_MACCS_83 Treatment_2_MACCS_84 Treatment_2_MACCS_85 Treatment_2_MACCS_86 Treatment_2_MACCS_87 Treatment_2_MACCS_88 Treatment_2_MACCS_89 Treatment_2_MACCS_90 Treatment_2_MACCS_91 Treatment_2_MACCS_92 Treatment_2_MACCS_93 Treatment_2_MACCS_94 Treatment_2_MACCS_95 Treatment_2_MACCS_96 Treatment_2_MACCS_97 Treatment_2_MACCS_98 Treatment_2_MACCS_99 Treatment_2_MACCS_100 Treatment_2_MACCS_101 Treatment_2_MACCS_102 Treatment_2_MACCS_103 Treatment_2_MACCS_104 Treatment_2_MACCS_105 Treatment_2_MACCS_106 Treatment_2_MACCS_107 Treatment_2_MACCS_108 Treatment_2_MACCS_109 Treatment_2_MACCS_110 Treatment_2_MACCS_111 Treatment_2_MACCS_112 Treatment_2_MACCS_113 Treatment_2_MACCS_114 Treatment_2_MACCS_115 Treatment_2_MACCS_116 Treatment_2_MACCS_117 Treatment_2_MACCS_118 Treatment_2_MACCS_119 Treatment_2_MACCS_120 Treatment_2_MACCS_121 Treatment_2_MACCS_122 Treatment_2_MACCS_123 Treatment_2_MACCS_124 Treatment_2_MACCS_125 Treatment_2_MACCS_126 Treatment_2_MACCS_127 Treatment_2_MACCS_128 Treatment_2_MACCS_129 Treatment_2_MACCS_130 Treatment_2_MACCS_131 Treatment_2_MACCS_132 Treatment_2_MACCS_133 Treatment_2_MACCS_134 Treatment_2_MACCS_135 Treatment_2_MACCS_136 Treatment_2_MACCS_137 Treatment_2_MACCS_138 Treatment_2_MACCS_139 Treatment_2_MACCS_140 Treatment_2_MACCS_141 Treatment_2_MACCS_142 Treatment_2_MACCS_143 Treatment_2_MACCS_144 Treatment_2_MACCS_145 Treatment_2_MACCS_146 Treatment_2_MACCS_147 Treatment_2_MACCS_148 Treatment_2_MACCS_149 Treatment_2_MACCS_150 Treatment_2_MACCS_151 Treatment_2_MACCS_152 Treatment_2_MACCS_153 Treatment_2_MACCS_154 Treatment_2_MACCS_155 Treatment_2_MACCS_156 Treatment_2_MACCS_157 Treatment_2_MACCS_158 